{"learner":{"attributes":{"best_iteration":"267","best_score":"152.72844282881832"},"feature_names":["HourUTC","acc_precip","mean_cloud_cover","mean_pressure","mean_radiation","mean_relative_hum","mean_temp","mean_wind_speed"],"feature_types":["float","float","float","float","float","float","float","float"],"gradient_booster":{"model":{"gbtree_model_param":{"num_parallel_tree":"1","num_trees":"278"},"iteration_indptr":[0,1,2,3,4,5,6,7,8,9,10,11,12,13,14,15,16,17,18,19,20,21,22,23,24,25,26,27,28,29,30,31,32,33,34,35,36,37,38,39,40,41,42,43,44,45,46,47,48,49,50,51,52,53,54,55,56,57,58,59,60,61,62,63,64,65,66,67,68,69,70,71,72,73,74,75,76,77,78,79,80,81,82,83,84,85,86,87,88,89,90,91,92,93,94,95,96,97,98,99,100,101,102,103,104,105,106,107,108,109,110,111,112,113,114,115,116,117,118,119,120,121,122,123,124,125,126,127,128,129,130,131,132,133,134,135,136,137,138,139,140,141,142,143,144,145,146,147,148,149,150,151,152,153,154,155,156,157,158,159,160,161,162,163,164,165,166,167,168,169,170,171,172,173,174,175,176,177,178,179,180,181,182,183,184,185,186,187,188,189,190,191,192,193,194,195,196,197,198,199,200,201,202,203,204,205,206,207,208,209,210,211,212,213,214,215,216,217,218,219,220,221,222,223,224,225,226,227,228,229,230,231,232,233,234,235,236,237,238,239,240,241,242,243,244,245,246,247,248,249,250,251,252,253,254,255,256,257,258,259,260,261,262,263,264,265,266,267,268,269,270,271,272,273,274,275,276,277,278],"tree_info":[0,0,0,0,0,0,0,0,0,0,0,0,0,0,0,0,0,0,0,0,0,0,0,0,0,0,0,0,0,0,0,0,0,0,0,0,0,0,0,0,0,0,0,0,0,0,0,0,0,0,0,0,0,0,0,0,0,0,0,0,0,0,0,0,0,0,0,0,0,0,0,0,0,0,0,0,0,0,0,0,0,0,0,0,0,0,0,0,0,0,0,0,0,0,0,0,0,0,0,0,0,0,0,0,0,0,0,0,0,0,0,0,0,0,0,0,0,0,0,0,0,0,0,0,0,0,0,0,0,0,0,0,0,0,0,0,0,0,0,0,0,0,0,0,0,0,0,0,0,0,0,0,0,0,0,0,0,0,0,0,0,0,0,0,0,0,0,0,0,0,0,0,0,0,0,0,0,0,0,0,0,0,0,0,0,0,0,0,0,0,0,0,0,0,0,0,0,0,0,0,0,0,0,0,0,0,0,0,0,0,0,0,0,0,0,0,0,0,0,0,0,0,0,0,0,0,0,0,0,0,0,0,0,0,0,0,0,0,0,0,0,0,0,0,0,0,0,0,0,0,0,0,0,0,0,0,0,0,0,0,0,0,0,0,0,0,0,0,0,0,0,0,0,0,0,0,0,0],"trees":[{"base_weights":[-6.080807E-1,1.6859547E2,-9.133591E1,2.6704465E2,1.1161013E1,-1.4425717E2,-8.375928E1,1.6141254E2,3.175112E2,8.439941E1,-7.351642E1,-1.2314575E2,-1.7929417E2,-9.515579E1,-2.6756094E1,5.244049E2,1.2703384E2,3.868596E2,2.6151132E2,3.264945E1,1.333541E2,-4.210738E1,-1.4957872E2,-1.4858754E2,-1.0139927E2,-1.6699416E2,-2.1640804E2,-1.600056E2,-9.474957E1,-9.918122E0,-5.7804546E1,1.9557663E2,6.2921466E2,1.14367645E2,3.2501587E2,3.4298843E2,4.606568E2,2.1778842E2,3.3219363E2,1.3166626E2,8.14811E0,8.956244E1,2.3598936E2,-9.918675E1,-8.959283E0,-1.2341378E2,-2.00687E2,-1.2121608E2,-1.7048422E2,-5.858201E1,-1.117282E2,-8.868912E1,-1.7023529E2,-1.4507462E2,-2.250568E2,-9.539874E1,-2.0596545E2,-6.4240135E1,-9.53585E1,3.913185E1,-2.7393244E1,-4.3322998E1,-7.6050575E1,4.3991165E1,1.0725325E1,4.751868E1,8.9203575E1,2.2163513E1,9.831381E0,6.0743164E1,2.3075796E1,2.7697525E1,4.5418194E1,1.8769888E0,4.851564E1,1.7893667E1,2.6378696E1,4.48552E1,1.7056707E1,9.56871E1,1.2380942E1,2.9381102E-1,2.3038301E1,9.853633E0,-1.1057341E1,3.7447716E1,1.4931953E1,-3.8539422E0,-1.2797268E1,5.0231957E0,-2.9021041E0,-4.745977E0,-1.4397125E1,-1.8743076E1,-3.9479733E1,2.9329941E0,-1.2802213E1,-2.0307835E1,-1.3918007E1,-3.6374085E0,-9.226085E0,-1.0012574E1,-1.285349E1,-1.03155E1,-4.5697002E0,-1.8738337E1,-1.5999082E1,-1.8216043E1,-1.0667579E1,-2.50883E1,-2.0813839E1,4.315868E0,-1.0328654E1,-1.7668108E1,-2.776959E1,-2.2952263E0,-7.84422E0,-7.318503E-1,-9.543651E0,6.9480306E-1,1.5744738E1,1.8965718E0,-3.9182937E0,-1.2600727E0,-5.1969943E0,-8.284721E0,6.193097E-1],"categories":[],"categories_nodes":[],"categories_segments":[],"categories_sizes":[],"default_left":[0,0,0,0,0,0,1,0,0,0,0,0,0,0,0,0,0,0,0,0,0,0,0,0,0,0,0,0,0,0,0,0,0,0,0,0,0,0,1,0,0,0,0,0,0,0,0,0,0,0,0,0,0,0,0,0,0,0,0,0,0,0,0,0,0,0,0,0,0,0,0,0,0,0,0,0,0,0,0,0,0,0,0,0,0,0,0,0,0,0,0,0,0,0,0,0,0,0,0,0,0,0,0,0,0,0,0,0,0,0,0,0,0,0,0,0,0,0,0,0,0,0,0,0,0,0,0],"id":0,"left_children":[1,3,5,7,9,11,13,15,17,19,21,23,25,27,29,31,33,35,37,39,41,43,45,47,49,51,53,55,57,59,61,63,65,67,69,71,73,75,77,79,81,83,85,87,89,91,93,95,97,99,101,103,105,107,109,111,113,115,117,119,121,123,125,-1,-1,-1,-1,-1,-1,-1,-1,-1,-1,-1,-1,-1,-1,-1,-1,-1,-1,-1,-1,-1,-1,-1,-1,-1,-1,-1,-1,-1,-1,-1,-1,-1,-1,-1,-1,-1,-1,-1,-1,-1,-1,-1,-1,-1,-1,-1,-1,-1,-1,-1,-1,-1,-1,-1,-1,-1,-1,-1,-1,-1,-1,-1,-1],"loss_changes":[1.9094927E9,6.729143E8,3.2453632E7,1.423474E8,1.0360459E8,7.477552E6,4.6011904E7,1.0772874E8,7.009306E7,2.2689872E7,1.8504008E7,3.48712E6,1.703128E6,1.53984E6,6.169952E6,2.5621872E7,1.9753432E7,2.597888E7,3.084128E7,1.0566776E7,2.0667368E7,1.037713E7,3.002756E6,1.726428E6,1.5042E6,7.12296E5,5.5036E5,1.067123E6,1.083744E6,6.5617305E6,1.093263E6,3.8804685E6,2.24888E7,1.2754136E7,1.2477676E7,3.70672E7,3.2544832E7,1.1002592E7,7.178352E7,5.48327E6,4.0436718E6,5.808372E6,1.6459816E7,3.512832E6,4.1232022E6,2.335302E6,1.894484E6,1.33474E6,1.621608E6,4.9477025E5,5.23572E5,6.742869E4,4.53296E5,1.300935E5,3.15248E5,1.7276612E5,3.9836E5,6.73115E5,3.94304E5,7.656482E6,3.0855155E6,6.145995E5,1.026243E6,0E0,0E0,0E0,0E0,0E0,0E0,0E0,0E0,0E0,0E0,0E0,0E0,0E0,0E0,0E0,0E0,0E0,0E0,0E0,0E0,0E0,0E0,0E0,0E0,0E0,0E0,0E0,0E0,0E0,0E0,0E0,0E0,0E0,0E0,0E0,0E0,0E0,0E0,0E0,0E0,0E0,0E0,0E0,0E0,0E0,0E0,0E0,0E0,0E0,0E0,0E0,0E0,0E0,0E0,0E0,0E0,0E0,0E0,0E0,0E0,0E0,0E0,0E0,0E0],"parents":[2147483647,0,0,1,1,2,2,3,3,4,4,5,5,6,6,7,7,8,8,9,9,10,10,11,11,12,12,13,13,14,14,15,15,16,16,17,17,18,18,19,19,20,20,21,21,22,22,23,23,24,24,25,25,26,26,27,27,28,28,29,29,30,30,31,31,32,32,33,33,34,34,35,35,36,36,37,37,38,38,39,39,40,40,41,41,42,42,43,43,44,44,45,45,46,46,47,47,48,48,49,49,50,50,51,51,52,52,53,53,54,54,55,55,56,56,57,57,58,58,59,59,60,60,61,61,62,62],"right_children":[2,4,6,8,10,12,14,16,18,20,22,24,26,28,30,32,34,36,38,40,42,44,46,48,50,52,54,56,58,60,62,64,66,68,70,72,74,76,78,80,82,84,86,88,90,92,94,96,98,100,102,104,106,108,110,112,114,116,118,120,122,124,126,-1,-1,-1,-1,-1,-1,-1,-1,-1,-1,-1,-1,-1,-1,-1,-1,-1,-1,-1,-1,-1,-1,-1,-1,-1,-1,-1,-1,-1,-1,-1,-1,-1,-1,-1,-1,-1,-1,-1,-1,-1,-1,-1,-1,-1,-1,-1,-1,-1,-1,-1,-1,-1,-1,-1,-1,-1,-1,-1,-1,-1,-1,-1,-1],"split_conditions":[2E2,5E0,8.722E2,1.0119E3,6.6E0,5.4E0,1.0059E3,3E-1,3E0,1.013E3,8.6E0,4E-1,8.1E0,9.927E2,5.2E0,1.0002E3,1.85E1,1.023E3,1.38E1,3.7E0,1.43E1,3E-1,1.01E1,6.4E0,6.2E0,4E-1,2.1E0,6.8E0,4.9E0,7.88E1,6.7E0,3.1E1,9.1E1,2.3E0,1.023E2,1.39E1,-2.7E0,5E-1,3.651E2,6.36E1,9.83E1,5.695E2,3.125E2,4.7E0,6.3E0,4.5E0,1.43E1,1E-1,2E-1,3.9E0,4E0,5E-1,3E-1,4E-1,3E-1,-8E-1,9.1E1,8.82E1,-3E-1,1.0237E3,9E-1,3.4E0,1.0258E3,4.3991165E1,1.0725325E1,4.751868E1,8.9203575E1,2.2163513E1,9.831381E0,6.0743164E1,2.3075796E1,2.7697525E1,4.5418194E1,1.8769888E0,4.851564E1,1.7893667E1,2.6378696E1,4.48552E1,1.7056707E1,9.56871E1,1.2380942E1,2.9381102E-1,2.3038301E1,9.853633E0,-1.1057341E1,3.7447716E1,1.4931953E1,-3.8539422E0,-1.2797268E1,5.0231957E0,-2.9021041E0,-4.745977E0,-1.4397125E1,-1.8743076E1,-3.9479733E1,2.9329941E0,-1.2802213E1,-2.0307835E1,-1.3918007E1,-3.6374085E0,-9.226085E0,-1.0012574E1,-1.285349E1,-1.03155E1,-4.5697002E0,-1.8738337E1,-1.5999082E1,-1.8216043E1,-1.0667579E1,-2.50883E1,-2.0813839E1,4.315868E0,-1.0328654E1,-1.7668108E1,-2.776959E1,-2.2952263E0,-7.84422E0,-7.318503E-1,-9.543651E0,6.9480306E-1,1.5744738E1,1.8965718E0,-3.9182937E0,-1.2600727E0,-5.1969943E0,-8.284721E0,6.193097E-1],"split_indices":[2,7,4,3,7,7,3,6,7,3,7,4,7,3,7,3,6,3,6,6,6,4,7,6,6,6,6,7,7,5,7,2,5,7,4,6,6,4,4,5,5,4,4,6,6,6,6,4,4,7,7,4,4,4,4,6,5,5,6,3,6,6,3,0,0,0,0,0,0,0,0,0,0,0,0,0,0,0,0,0,0,0,0,0,0,0,0,0,0,0,0,0,0,0,0,0,0,0,0,0,0,0,0,0,0,0,0,0,0,0,0,0,0,0,0,0,0,0,0,0,0,0,0,0,0,0,0],"split_type":[0,0,0,0,0,0,0,0,0,0,0,0,0,0,0,0,0,0,0,0,0,0,0,0,0,0,0,0,0,0,0,0,0,0,0,0,0,0,0,0,0,0,0,0,0,0,0,0,0,0,0,0,0,0,0,0,0,0,0,0,0,0,0,0,0,0,0,0,0,0,0,0,0,0,0,0,0,0,0,0,0,0,0,0,0,0,0,0,0,0,0,0,0,0,0,0,0,0,0,0,0,0,0,0,0,0,0,0,0,0,0,0,0,0,0,0,0,0,0,0,0,0,0,0,0,0,0],"sum_hessian":[1.24383E5,4.3415E4,8.0968E4,2.6711E4,1.6704E4,1.0138E4,7.083E4,8.637E3,1.8074E4,8.957E3,7.747E3,6.329E3,3.809E3,5.9028E4,1.1802E4,7.46E2,7.891E3,8.072E3,1.0002E4,4.355E3,4.602E3,5.484E3,2.263E3,2.914E3,3.415E3,2.865E3,9.44E2,3.65E2,5.8663E4,7.653E3,4.149E3,1.81E2,5.65E2,7.418E3,4.73E2,5.066E3,3.006E3,6.182E3,3.82E3,8.63E2,3.492E3,3.227E3,1.375E3,2.014E3,3.47E3,1.499E3,7.64E2,1.298E3,1.616E3,6.65E2,2.75E3,1.15E2,2.75E3,1.04E2,8.4E2,1.53E2,2.12E2,1.15E3,5.7513E4,2.01E3,5.643E3,2.315E3,1.834E3,4.7E1,1.34E2,3.58E2,2.07E2,9.64E2,6.454E3,1.17E2,3.56E2,3.181E3,1.885E3,1.58E2,2.848E3,3.354E3,2.828E3,2.22E3,1.6E3,7E0,8.56E2,3.413E3,7.9E1,3.089E3,1.38E2,5.28E2,8.47E2,6.49E2,1.365E3,8.78E2,2.592E3,3.2E2,1.179E3,7.17E2,4.7E1,5.6E1,1.242E3,7.89E2,8.27E2,4.02E2,2.63E2,1.631E3,1.119E3,8.5E1,3E1,1.022E3,1.728E3,5.1E1,5.3E1,3.27E2,5.13E2,8E0,1.45E2,1.53E2,5.9E1,2.95E2,8.55E2,5.1E1,5.7462E4,1.581E3,4.29E2,1.144E3,4.499E3,5.09E2,1.806E3,1.694E3,1.4E2],"tree_param":{"num_deleted":"0","num_feature":"8","num_nodes":"127","size_leaf_vector":"1"}},{"base_weights":[5.885177E-1,-8.695528E1,5.901232E2,-1.9221002E2,-6.931596E1,1.09167E3,2.1702098E2,-2.1999579E2,-1.674886E2,-4.2318935E1,-1.0768455E2,7.570663E2,1.5348347E3,4.4254913E2,1.7542035E2,-2.2791057E2,-1.979777E1,-1.5214131E2,-1.7381467E2,-1.03226234E2,-2.2882198E1,-1.1787255E2,1.5368436E2,1.2080411E3,6.6895105E2,2.0448341E3,1.036082E3,5.719498E2,3.3142123E2,4.860215E1,2.1822838E2,-2.2423442E2,-2.4387743E1,-1.5495207E2,-1.408747E1,-1.7709265E2,-1.3964063E1,-4.437416E1,-1.1675144E2,-1.2249869E1,-6.010733E1,-1.4119879E2,-8.7404335E1,5.4057983E1,2.0390952E2,9.597332E2,1.6898674E3,4.3822177E2,8.1894836E2,1.6302712E3,2.8774436E3,1.6917434E3,7.621681E2,4.991036E2,7.6914856E2,1.6710645E2,4.351931E2,4.5732974E2,3.128496E1,7.907442E1,2.6849243E2,-2.490087E1,-2.2106344E1,-1.618522E1,-1.5248451E1,-1.6798E1,-1.877567E1,-9.953657E0,-8.867327E-1,-1.1892962E1,-6.831689E0,-5.304296E0,1.0877079E0,3.2211213E0,-6.72117E0,-1.0556247E1,-1.5510141E1,-2.9356475E0,-1.1642551E1,-9.967111E0,7.1603723E0,3.6603127E0,2.2273756E1,3.0723509E1,1.0086361E2,2.1570882E2,1.0487359E2,7.4441E1,4.1334084E1,6.277714E1,1.0758207E2,1.2519952E2,2.0114256E2,1.572016E2,3.2571896E2,2.3969925E2,1.542603E2,1.1192594E2,4.284478E1,4.3596203E1,5.9467407E1,6.701919E1,9.143244E1,-3.3409805E0,2.419962E1,2.5301893E1,4.771221E1,7.446772E1,3.0518698E1,-1.8485882E0,8.541605E0,1.975778E1,-1.1953917E0,3.344537E1,2.282952E1],"categories":[],"categories_nodes":[],"categories_segments":[],"categories_sizes":[],"default_left":[0,0,0,0,0,0,0,0,0,0,0,0,0,0,0,0,0,0,0,0,0,0,0,0,0,0,0,0,0,0,0,0,0,0,0,0,0,0,0,0,0,0,0,0,0,0,0,0,0,0,0,0,0,0,0,0,0,0,0,0,0,0,0,0,0,0,0,0,0,0,0,0,0,0,0,0,0,0,0,0,0,0,0,0,0,0,0,0,0,0,0,0,0,0,0,0,0,0,0,0,0,0,0,0,0,0,0,0,0,0,0,0,0,0,0],"id":1,"left_children":[1,3,5,7,9,11,13,15,17,19,21,23,25,27,29,31,-1,33,35,37,39,41,43,45,47,49,51,53,55,57,59,61,-1,63,-1,65,-1,67,69,71,73,75,77,79,81,83,85,87,89,91,93,95,97,99,101,103,105,107,109,111,113,-1,-1,-1,-1,-1,-1,-1,-1,-1,-1,-1,-1,-1,-1,-1,-1,-1,-1,-1,-1,-1,-1,-1,-1,-1,-1,-1,-1,-1,-1,-1,-1,-1,-1,-1,-1,-1,-1,-1,-1,-1,-1,-1,-1,-1,-1,-1,-1,-1,-1,-1,-1,-1,-1],"loss_changes":[6.4296904E9,2.0138176E8,3.0140242E9,1.0657536E7,9.623094E7,1.0177019E9,8.659434E7,1.231744E6,7.73856E5,6.455949E7,1.021935E8,1.5484493E8,7.495255E8,2.0488928E7,4.233976E7,2.6128E5,0E0,5.4616E4,6.28352E5,1.0496272E7,1.63628E7,2.6235584E7,7.194376E6,7.482893E7,1.1312307E8,4.9925632E8,2.6738445E8,9.140224E6,1.3159048E7,1.3929381E7,4.077037E7,2.8968E5,0E0,8.048E3,0E0,4.85056E5,0E0,4.831088E6,1.123568E6,3.0340948E7,6.026286E6,1.034624E7,2.6979104E7,1.3126254E6,3.006448E6,1.3219552E7,6.244051E7,9.550336E6,9.685338E7,1.38347E8,2.3481344E8,4.2582144E7,1.254816E8,2.679536E6,1.93004E6,4.543102E6,3.507504E6,3.27016E6,5.096216E6,1.671168E7,1.1282464E7,0E0,0E0,0E0,0E0,0E0,0E0,0E0,0E0,0E0,0E0,0E0,0E0,0E0,0E0,0E0,0E0,0E0,0E0,0E0,0E0,0E0,0E0,0E0,0E0,0E0,0E0,0E0,0E0,0E0,0E0,0E0,0E0,0E0,0E0,0E0,0E0,0E0,0E0,0E0,0E0,0E0,0E0,0E0,0E0,0E0,0E0,0E0,0E0,0E0,0E0,0E0,0E0,0E0,0E0],"parents":[2147483647,0,0,1,1,2,2,3,3,4,4,5,5,6,6,7,7,8,8,9,9,10,10,11,11,12,12,13,13,14,14,15,15,17,17,18,18,19,19,20,20,21,21,22,22,23,23,24,24,25,25,26,26,27,27,28,28,29,29,30,30,31,31,33,33,35,35,37,37,38,38,39,39,40,40,41,41,42,42,43,43,44,44,45,45,46,46,47,47,48,48,49,49,50,50,51,51,52,52,53,53,54,54,55,55,56,56,57,57,58,58,59,59,60,60],"right_children":[2,4,6,8,10,12,14,16,18,20,22,24,26,28,30,32,-1,34,36,38,40,42,44,46,48,50,52,54,56,58,60,62,-1,64,-1,66,-1,68,70,72,74,76,78,80,82,84,86,88,90,92,94,96,98,100,102,104,106,108,110,112,114,-1,-1,-1,-1,-1,-1,-1,-1,-1,-1,-1,-1,-1,-1,-1,-1,-1,-1,-1,-1,-1,-1,-1,-1,-1,-1,-1,-1,-1,-1,-1,-1,-1,-1,-1,-1,-1,-1,-1,-1,-1,-1,-1,-1,-1,-1,-1,-1,-1,-1,-1,-1,-1,-1],"split_conditions":[1.6292808E9,1.0321704E9,1.6729632E9,9.790272E8,1.382598E9,1.6543764E9,1.6822584E9,9.665892E8,9.946368E8,1.1168604E9,1.6197876E9,2.1E0,1.6635852E9,4.1E0,1.0059E3,9.604224E8,-1.979777E1,9.914796E8,1.0290024E9,1.0478592E9,1.3234248E9,1.516932E9,1.6229952E9,1.023E3,1.0137E3,1.6606513E9,4.8E0,1.03E3,1.0063E3,-1E-1,7.27E1,9.353412E8,-2.4387743E1,9.821376E8,-1.408747E1,1.0132632E9,-1.3964063E1,1.03851E9,1.1136852E9,1.1922624E9,-2.3E0,1.420092E9,1.5510312E9,9.999E2,1.0051E3,9.946E2,1.0281E3,2.8E0,1.64502E9,1.6575156E9,1.0104E3,-2.3E0,1.6667604E9,8.87E1,1.038E3,9.946E2,6.22E1,1.7042255E9,9E1,1.6948008E9,1.7042255E9,-2.490087E1,-2.2106344E1,-1.618522E1,-1.5248451E1,-1.6798E1,-1.877567E1,-9.953657E0,-8.867327E-1,-1.1892962E1,-6.831689E0,-5.304296E0,1.0877079E0,3.2211213E0,-6.72117E0,-1.0556247E1,-1.5510141E1,-2.9356475E0,-1.1642551E1,-9.967111E0,7.1603723E0,3.6603127E0,2.2273756E1,3.0723509E1,1.0086361E2,2.1570882E2,1.0487359E2,7.4441E1,4.1334084E1,6.277714E1,1.0758207E2,1.2519952E2,2.0114256E2,1.572016E2,3.2571896E2,2.3969925E2,1.542603E2,1.1192594E2,4.284478E1,4.3596203E1,5.9467407E1,6.701919E1,9.143244E1,-3.3409805E0,2.419962E1,2.5301893E1,4.771221E1,7.446772E1,3.0518698E1,-1.8485882E0,8.541605E0,1.975778E1,-1.1953917E0,3.344537E1,2.282952E1],"split_indices":[0,0,0,0,0,0,0,0,0,0,0,6,0,6,3,0,0,0,0,0,0,0,0,3,3,0,6,3,3,6,5,0,0,0,0,0,0,0,0,0,6,0,0,3,3,3,3,6,0,0,3,6,0,5,3,3,5,0,5,0,0,0,0,0,0,0,0,0,0,0,0,0,0,0,0,0,0,0,0,0,0,0,0,0,0,0,0,0,0,0,0,0,0,0,0,0,0,0,0,0,0,0,0,0,0,0,0,0,0,0,0,0,0,0,0],"split_type":[0,0,0,0,0,0,0,0,0,0,0,0,0,0,0,0,0,0,0,0,0,0,0,0,0,0,0,0,0,0,0,0,0,0,0,0,0,0,0,0,0,0,0,0,0,0,0,0,0,0,0,0,0,0,0,0,0,0,0,0,0,0,0,0,0,0,0,0,0,0,0,0,0,0,0,0,0,0,0,0,0,0,0,0,0,0,0,0,0,0,0,0,0,0,0,0,0,0,0,0,0,0,0,0,0,0,0,0,0,0,0,0,0,0,0],"sum_hessian":[1.2458E5,1.08473E5,1.6107E4,1.5568E4,9.2905E4,6.87E3,9.237E3,7.326E3,8.242E3,5.4535E4,3.837E4,3.916E3,2.954E3,1.437E3,7.8E3,5.382E3,1.944E3,2.413E3,5.829E3,1.3192E4,4.1343E4,3.6931E4,1.439E3,6.38E2,3.278E3,1.459E3,1.495E3,6.62E2,7.75E2,1.969E3,5.831E3,4.387E3,9.95E2,1.921E3,4.92E2,5.315E3,5.14E2,2.466E3,1.0726E4,3.2159E4,9.184E3,2.0915E4,1.6016E4,4.83E2,9.56E2,4.23E2,2.15E2,1.293E3,1.985E3,9.76E2,4.83E2,4.39E2,1.056E3,4.86E2,1.76E2,3.01E2,4.74E2,7.9E1,1.89E3,1.548E3,4.283E3,4.89E2,3.898E3,4.89E2,1.432E3,2.875E3,2.44E3,9.65E2,1.501E3,1.0263E4,4.63E2,1.1635E4,2.0524E4,6.56E2,8.528E3,5.872E3,1.5043E4,5.339E3,1.0677E4,4.9E1,4.34E2,9.7E1,8.59E2,3E1,3.93E2,1.23E2,9.2E1,9.5E1,1.198E3,1.14E3,8.45E2,4.92E2,4.84E2,1.1E2,3.73E2,7.4E1,3.65E2,5.09E2,5.47E2,2.96E2,1.9E2,1.08E2,6.8E1,8.2E1,2.19E2,9E1,3.84E2,2.6E1,5.3E1,9.85E2,9.05E2,6.72E2,8.76E2,1.619E3,2.664E3],"tree_param":{"num_deleted":"0","num_feature":"8","num_nodes":"115","size_leaf_vector":"1"}},{"base_weights":[-3.569434E-1,-7.803475E1,5.23892E2,-1.732684E2,-6.1963478E1,9.699133E2,1.9275684E2,-1.9765756E2,-1.5149016E2,-3.785367E1,-9.620342E1,1.3337427E3,5.69716E2,3.1969882E2,3.6064156E1,-2.0452045E2,-1.7809744E2,-1.3685007E2,-1.5758745E2,-7.240191E1,-8.940054E0,-1.1025811E2,7.277708E1,9.858032E2,1.8992188E3,7.907083E2,3.13684E2,6.2796924E2,2.8863605E2,2.0979163E2,-1.9907698E1,-2.0158305E2,-2.1741198E1,-1.7225803E1,-1.8377567E1,-1.3973607E1,-1.2515111E1,-1.5990822E2,-1.3097026E1,-6.2179028E1,-1.2646957E2,7.708115E1,-3.0074928E1,-9.522264E1,-1.6076947E2,1.6002075E1,1.8147214E2,5.45491E2,1.1348135E3,2.5409165E3,1.391277E3,4.979655E2,1.0107203E3,4.6827957E2,1.519793E2,5.846742E2,8.4530774E2,3.2926727E2,1.9185944E2,3.3249945E2,1.5534492E2,5.0539272E1,-1.3130116E2,-2.2346018E1,-1.9891527E1,-1.5235344E1,-1.68925E1,-9.377112E0,-9.0800554E-1,-1.3499942E1,-6.8066707E0,2.157407E0,1.3167589E1,-6.8346353E0,-1.8855448E0,-1.1714808E1,-6.8204956E0,-1.4643245E1,-2.5353407E1,4.7659106E0,-9.3774395E0,2.1020287E1,-4.499406E-1,4.483367E1,6.653349E1,1.3045749E2,1.0083493E2,2.1555191E2,2.9550607E2,1.7417543E2,9.79273E1,4.546826E1,7.8554924E1,1.20561424E2,7.3106346E1,6.8567314E1,3.018155E1,2.1647518E1,-1.211546E1,6.495605E1,5.1946003E1,5.3950314E1,8.949927E1,3.7065117E1,2.8846348E1,2.6762192E1,1.2084868E1,6.5744653E0,3.7789196E1,2.1344078E1,8.443968E0,1.0648524E1,-9.1466904E-1,-2.3446342E1,-9.592947E0],"categories":[],"categories_nodes":[],"categories_segments":[],"categories_sizes":[],"default_left":[0,0,0,0,0,0,1,0,0,0,0,0,0,0,0,0,0,0,0,0,0,0,0,0,0,0,0,0,1,0,0,0,0,0,0,0,0,0,0,0,0,0,0,0,0,0,0,0,0,0,0,0,0,0,0,0,0,0,0,0,0,0,0,0,0,0,0,0,0,0,0,0,0,0,0,0,0,0,0,0,0,0,0,0,0,0,0,0,0,0,0,0,0,0,0,0,0,0,0,0,0,0,0,0,0,0,0,0,0,0,0,0,0,0,0],"id":2,"left_children":[1,3,5,7,9,11,13,15,17,19,21,23,25,27,29,31,33,35,37,39,41,43,45,47,49,51,53,55,57,59,61,63,-1,-1,-1,-1,-1,65,-1,67,69,71,73,75,77,79,81,83,85,87,89,91,93,95,97,99,101,103,105,107,109,111,113,-1,-1,-1,-1,-1,-1,-1,-1,-1,-1,-1,-1,-1,-1,-1,-1,-1,-1,-1,-1,-1,-1,-1,-1,-1,-1,-1,-1,-1,-1,-1,-1,-1,-1,-1,-1,-1,-1,-1,-1,-1,-1,-1,-1,-1,-1,-1,-1,-1,-1,-1,-1],"loss_changes":[5.064414E9,1.6576813E8,2.3701437E9,8.2768E6,7.650294E7,9.948764E8,1.8322333E8,9.5344E5,7.16288E5,5.432533E7,9.09527E7,7.026949E8,1.8409318E8,4.8549664E7,4.010533E7,1.62624E5,3.2104E4,6.4824E4,3.39136E5,1.3687608E7,5.3831064E7,2.6833952E7,1.8146484E7,1.4497203E8,4.4072806E8,1.1208E8,3.770208E7,3.88128E6,1.812304E7,6.662796E6,2.4490312E7,2.1552E5,0E0,0E0,0E0,0E0,0E0,3.39184E5,0E0,3.495841E7,1.953096E6,1.7694664E7,1.0204774E7,1.6131856E7,1.0746272E7,6.7220255E6,5.392132E6,6.256912E6,3.4258176E7,8.955571E7,1.0847002E8,9.003296E6,5.345856E7,2.7730368E7,1.3062074E7,1.317104E6,6.56688E5,5.391232E6,7.338196E6,3.704624E6,2.857248E6,6.3855015E6,4.38918E6,0E0,0E0,0E0,0E0,0E0,0E0,0E0,0E0,0E0,0E0,0E0,0E0,0E0,0E0,0E0,0E0,0E0,0E0,0E0,0E0,0E0,0E0,0E0,0E0,0E0,0E0,0E0,0E0,0E0,0E0,0E0,0E0,0E0,0E0,0E0,0E0,0E0,0E0,0E0,0E0,0E0,0E0,0E0,0E0,0E0,0E0,0E0,0E0,0E0,0E0,0E0,0E0],"parents":[2147483647,0,0,1,1,2,2,3,3,4,4,5,5,6,6,7,7,8,8,9,9,10,10,11,11,12,12,13,13,14,14,15,15,16,16,17,17,18,18,19,19,20,20,21,21,22,22,23,23,24,24,25,25,26,26,27,27,28,28,29,29,30,30,31,31,37,37,39,39,40,40,41,41,42,42,43,43,44,44,45,45,46,46,47,47,48,48,49,49,50,50,51,51,52,52,53,53,54,54,55,55,56,56,57,57,58,58,59,59,60,60,61,61,62,62],"right_children":[2,4,6,8,10,12,14,16,18,20,22,24,26,28,30,32,34,36,38,40,42,44,46,48,50,52,54,56,58,60,62,64,-1,-1,-1,-1,-1,66,-1,68,70,72,74,76,78,80,82,84,86,88,90,92,94,96,98,100,102,104,106,108,110,112,114,-1,-1,-1,-1,-1,-1,-1,-1,-1,-1,-1,-1,-1,-1,-1,-1,-1,-1,-1,-1,-1,-1,-1,-1,-1,-1,-1,-1,-1,-1,-1,-1,-1,-1,-1,-1,-1,-1,-1,-1,-1,-1,-1,-1,-1,-1,-1,-1,-1,-1,-1,-1],"split_conditions":[1.6292808E9,1.0321704E9,1.6729632E9,9.790272E8,1.382598E9,4.5E0,4.6E0,9.665892E8,9.946368E8,1.1922624E9,1.6103772E9,1.6575156E9,6.2E0,1.6791372E9,1.6854084E9,9.604224E8,9.727704E8,9.914796E8,1.0290024E9,1.1669436E9,1.2294828E9,6.3E0,1.6229952E9,1.6356924E9,1.6635852E9,1.6481448E9,7.5E0,1.038E3,3.7E0,5.5E0,6.7E0,9.353412E8,-2.1741198E1,-1.7225803E1,-1.8377567E1,-1.3973607E1,-1.2515111E1,1.0132632E9,-1.3097026E1,1.1168604E9,1.189008E9,1.210932E9,1.2640392E9,1.5107364E9,1.5790104E9,5.9E0,6E0,1.6326108E9,2.8E0,1.6606513E9,9.31E1,1.029E3,1.6635852E9,8.07E1,1.6635852E9,3E0,4.3E1,1.7072748E9,1.7072748E9,5.91E1,1.6791372E9,1.710378E9,1.6979292E9,-2.2346018E1,-1.9891527E1,-1.5235344E1,-1.68925E1,-9.377112E0,-9.0800554E-1,-1.3499942E1,-6.8066707E0,2.157407E0,1.3167589E1,-6.8346353E0,-1.8855448E0,-1.1714808E1,-6.8204956E0,-1.4643245E1,-2.5353407E1,4.7659106E0,-9.3774395E0,2.1020287E1,-4.499406E-1,4.483367E1,6.653349E1,1.3045749E2,1.0083493E2,2.1555191E2,2.9550607E2,1.7417543E2,9.79273E1,4.546826E1,7.8554924E1,1.20561424E2,7.3106346E1,6.8567314E1,3.018155E1,2.1647518E1,-1.211546E1,6.495605E1,5.1946003E1,5.3950314E1,8.949927E1,3.7065117E1,2.8846348E1,2.6762192E1,1.2084868E1,6.5744653E0,3.7789196E1,2.1344078E1,8.443968E0,1.0648524E1,-9.1466904E-1,-2.3446342E1,-9.592947E0],"split_indices":[0,0,0,0,0,7,7,0,0,0,0,0,7,0,0,0,0,0,0,0,0,7,0,0,0,0,7,3,7,7,7,0,0,0,0,0,0,0,0,0,0,0,0,0,0,7,7,0,7,0,5,3,0,5,0,7,2,0,0,5,0,0,0,0,0,0,0,0,0,0,0,0,0,0,0,0,0,0,0,0,0,0,0,0,0,0,0,0,0,0,0,0,0,0,0,0,0,0,0,0,0,0,0,0,0,0,0,0,0,0,0,0,0,0,0],"split_type":[0,0,0,0,0,0,0,0,0,0,0,0,0,0,0,0,0,0,0,0,0,0,0,0,0,0,0,0,0,0,0,0,0,0,0,0,0,0,0,0,0,0,0,0,0,0,0,0,0,0,0,0,0,0,0,0,0,0,0,0,0,0,0,0,0,0,0,0,0,0,0,0,0,0,0,0,0,0,0,0,0,0,0,0,0,0,0,0,0,0,0,0,0,0,0,0,0,0,0,0,0,0,0,0,0,0,0,0,0,0,0,0,0,0,0],"sum_hessian":[1.24362E5,1.08314E5,1.6048E4,1.5638E4,9.2676E4,6.837E3,9.211E3,7.373E3,8.265E3,5.4384E4,3.8292E4,3.58E3,3.257E3,5.088E3,4.123E3,5.451E3,1.922E3,2.437E3,5.828E3,2.4777E4,2.9607E4,3.5352E4,2.94E3,2.218E3,1.362E3,1.747E3,1.51E3,4.64E2,4.624E3,1.004E3,3.119E3,4.453E3,9.98E2,9.63E2,9.59E2,1.946E3,4.91E2,5.356E3,4.72E2,2.0839E4,3.938E3,5.839E3,2.3768E4,2.7245E4,8.107E3,1.932E3,1.008E3,5.62E2,1.656E3,6E2,7.62E2,7.51E2,9.96E2,7.71E2,7.39E2,3.9E2,7.4E1,3.255E3,1.369E3,3.07E2,6.97E2,1.911E3,1.208E3,4.75E2,3.978E3,2.924E3,2.432E3,1.3065E4,7.774E3,3.435E3,5.03E2,2.896E3,2.943E3,5.387E3,1.8381E4,1.5038E4,1.2207E4,7.024E3,1.083E3,1.5E3,4.32E2,8.73E2,1.35E2,3.13E2,2.49E2,7.03E2,9.53E2,3.14E2,2.86E2,4.1E2,3.52E2,6.55E2,9.6E1,5.85E2,4.11E2,3.33E2,4.38E2,5.98E2,1.41E2,1.91E2,1.99E2,1.2E1,6.2E1,1.612E3,1.643E3,6.61E2,7.08E2,4.5E1,2.62E2,3.82E2,3.15E2,9.86E2,9.25E2,3.07E2,9.01E2],"tree_param":{"num_deleted":"0","num_feature":"8","num_nodes":"115","size_leaf_vector":"1"}},{"base_weights":[2.5105387E-1,-7.067563E1,4.8002E2,-1.5549777E2,-5.6434082E1,8.889154E2,1.7548912E2,-1.8375545E2,-1.4058499E2,-4.1187405E1,-1.00867294E2,1.2472119E3,5.6249725E2,2.871676E2,2.6606089E1,-1.8161539E2,-2.040463E1,-1.5878473E2,-1.362098E2,-4.4759995E1,1.4527347E2,1.1372163E1,-1.1216108E2,9.068572E2,1.7970653E3,4.625323E2,1.1042054E3,3.1952396E2,5.9839466E1,1.3461108E2,-5.7074486E1,-2.0205603E1,-1.7922215E2,-1.5199492E1,-1.6523891E1,-1.2264011E2,-1.4181012E2,-9.7238884E1,-3.6592926E1,7.158626E1,2.0687352E2,3.9129944E1,-2.541239E1,-9.799893E1,-1.4812424E2,5.0417557E2,1.0419072E3,2.3207898E3,1.3367931E3,6.495779E2,2.099231E2,8.181822E2,2.2590618E3,5.592088E2,2.9232446E2,1.5461716E2,-5.009996E1,2.2220181E2,5.936092E1,-4.910335E0,-1.9434952E2,-1.7532057E1,-1.8404081E1,-1.2498942E1,-1.1345248E1,-1.4431479E1,-1.1364498E1,-1.1948807E1,-6.4011664E0,-8.614783E0,-2.3105884E0,8.574669E0,6.1014965E-3,1.2634432E1,2.404162E1,4.498657E0,-6.5373726E0,-4.470795E0,7.484205E-3,-1.0340945E1,8.519638E-1,-1.3443499E1,-1.8949282E1,4.017195E1,6.2626717E1,8.894023E1,1.143662E2,1.965731E2,2.6954575E2,1.8764018E2,1.16211235E2,4.55756E1,7.950222E1,3.1203571E1,8.971143E-1,3.114115E1,1.0155167E2,1.9753078E2,3.2465097E2,6.3916706E1,4.822263E1,3.356042E1,2.2675318E1,2.042461E1,1.8207867E0,-1.7087468E0,-2.3488554E1,3.1555647E1,1.0586871E1,2.6859762E1,1.4974374E0,1.5527533E0,-2.4558405E1,1.3982337E0,-2.2397045E1],"categories":[],"categories_nodes":[],"categories_segments":[],"categories_sizes":[],"default_left":[0,0,0,0,1,0,1,0,0,0,0,0,0,1,0,0,0,0,0,0,0,0,0,0,0,0,0,0,0,0,0,0,0,0,0,0,0,0,0,0,0,0,0,0,0,0,1,0,0,0,0,0,0,0,1,0,0,0,0,1,0,0,0,0,0,0,0,0,0,0,0,0,0,0,0,0,0,0,0,0,0,0,0,0,0,0,0,0,0,0,0,0,0,0,0,0,0,0,0,0,0,0,0,0,0,0,0,0,0,0,0,0,0,0,0],"id":3,"left_children":[1,3,5,7,9,11,13,15,17,19,21,23,25,27,29,31,-1,33,35,37,39,41,43,45,47,49,51,53,55,57,59,-1,61,-1,-1,63,65,67,69,71,73,75,77,79,81,83,85,87,89,91,93,95,97,99,101,103,105,107,109,111,113,-1,-1,-1,-1,-1,-1,-1,-1,-1,-1,-1,-1,-1,-1,-1,-1,-1,-1,-1,-1,-1,-1,-1,-1,-1,-1,-1,-1,-1,-1,-1,-1,-1,-1,-1,-1,-1,-1,-1,-1,-1,-1,-1,-1,-1,-1,-1,-1,-1,-1,-1,-1,-1,-1],"loss_changes":[4.2325906E9,1.3089472E8,1.994675E9,6.53872E6,6.285523E7,7.9903334E8,1.526784E8,1.9648E5,7.90656E5,4.602667E7,3.0048656E7,6.082765E8,1.933527E8,3.8575264E7,3.5589972E7,2.02224E5,0E0,6.126E4,6.08112E5,2.904944E7,5.88153E6,2.214647E6,1.0954624E7,1.0905472E8,2.9701197E8,1.4274598E8,1.821376E8,2.9779712E7,6.832719E6,1.1317114E7,1.5888939E7,0E0,4.992E4,0E0,0E0,3.788E4,3.94168E5,6.740488E6,3.920269E7,6.0060175E5,1.879348E6,7.5942125E5,4.5884388E5,8.907904E6,3.41936E6,6.103E6,2.2384256E7,7.199155E7,6.050189E7,4.860416E7,2.6426616E7,4.448525E7,2.4408256E7,2.566336E6,1.1635936E7,2.379267E6,1.8504572E6,8.589616E6,8.596012E6,7.9182555E6,3.773604E6,0E0,0E0,0E0,0E0,0E0,0E0,0E0,0E0,0E0,0E0,0E0,0E0,0E0,0E0,0E0,0E0,0E0,0E0,0E0,0E0,0E0,0E0,0E0,0E0,0E0,0E0,0E0,0E0,0E0,0E0,0E0,0E0,0E0,0E0,0E0,0E0,0E0,0E0,0E0,0E0,0E0,0E0,0E0,0E0,0E0,0E0,0E0,0E0,0E0,0E0,0E0,0E0,0E0,0E0],"parents":[2147483647,0,0,1,1,2,2,3,3,4,4,5,5,6,6,7,7,8,8,9,9,10,10,11,11,12,12,13,13,14,14,15,15,17,17,18,18,19,19,20,20,21,21,22,22,23,23,24,24,25,25,26,26,27,27,28,28,29,29,30,30,32,32,35,35,36,36,37,37,38,38,39,39,40,40,41,41,42,42,43,43,44,44,45,45,46,46,47,47,48,48,49,49,50,50,51,51,52,52,53,53,54,54,55,55,56,56,57,57,58,58,59,59,60,60],"right_children":[2,4,6,8,10,12,14,16,18,20,22,24,26,28,30,32,-1,34,36,38,40,42,44,46,48,50,52,54,56,58,60,-1,62,-1,-1,64,66,68,70,72,74,76,78,80,82,84,86,88,90,92,94,96,98,100,102,104,106,108,110,112,114,-1,-1,-1,-1,-1,-1,-1,-1,-1,-1,-1,-1,-1,-1,-1,-1,-1,-1,-1,-1,-1,-1,-1,-1,-1,-1,-1,-1,-1,-1,-1,-1,-1,-1,-1,-1,-1,-1,-1,-1,-1,-1,-1,-1,-1,-1,-1,-1,-1,-1,-1,-1,-1,-1],"split_conditions":[1.6292808E9,1.0321704E9,1.6729632E9,9.665892E8,4.7E0,4.2E0,4.7E0,9.63522E8,9.790272E8,1.6166268E9,1.3234248E9,1.6575156E9,1.52E1,3.376E2,7.7E0,9.353412E8,-2.040463E1,9.727704E8,9.946368E8,3E-1,1.6229952E9,1.3108608E9,7.3E0,1.6356924E9,1.6635852E9,6.2E0,1.6606513E9,1.6791372E9,1.6948008E9,1.7009784E9,7.2E0,-2.0205603E1,9.510012E8,-1.5199492E1,-1.6523891E1,9.914796E8,1.0290024E9,1.5293088E9,1.1136852E9,4.444E2,3E-1,1.03E1,1.28E1,1.6103772E9,9.3E0,1.6326108E9,2E-1,1.6606513E9,5E-1,1.64502E9,8.1E0,1.6513416E9,2.05E1,1.6760448E9,3.3E0,6.296E2,6.44E2,6.6E0,1.2E0,6.166E2,1.6854084E9,-1.7532057E1,-1.8404081E1,-1.2498942E1,-1.1345248E1,-1.4431479E1,-1.1364498E1,-1.1948807E1,-6.4011664E0,-8.614783E0,-2.3105884E0,8.574669E0,6.1014965E-3,1.2634432E1,2.404162E1,4.498657E0,-6.5373726E0,-4.470795E0,7.484205E-3,-1.0340945E1,8.519638E-1,-1.3443499E1,-1.8949282E1,4.017195E1,6.2626717E1,8.894023E1,1.143662E2,1.965731E2,2.6954575E2,1.8764018E2,1.16211235E2,4.55756E1,7.950222E1,3.1203571E1,8.971143E-1,3.114115E1,1.0155167E2,1.9753078E2,3.2465097E2,6.3916706E1,4.822263E1,3.356042E1,2.2675318E1,2.042461E1,1.8207867E0,-1.7087468E0,-2.3488554E1,3.1555647E1,1.0586871E1,2.6859762E1,1.4974374E0,1.5527533E0,-2.4558405E1,1.3982337E0,-2.2397045E1],"split_indices":[0,0,0,0,7,7,7,0,0,0,0,0,6,4,6,0,0,0,0,4,0,0,7,0,0,7,0,0,0,0,7,0,0,0,0,0,0,0,0,4,4,7,6,0,7,0,4,0,6,0,7,0,6,0,7,4,4,7,6,4,0,0,0,0,0,0,0,0,0,0,0,0,0,0,0,0,0,0,0,0,0,0,0,0,0,0,0,0,0,0,0,0,0,0,0,0,0,0,0,0,0,0,0,0,0,0,0,0,0,0,0,0,0,0,0],"split_type":[0,0,0,0,0,0,0,0,0,0,0,0,0,0,0,0,0,0,0,0,0,0,0,0,0,0,0,0,0,0,0,0,0,0,0,0,0,0,0,0,0,0,0,0,0,0,0,0,0,0,0,0,0,0,0,0,0,0,0,0,0,0,0,0,0,0,0,0,0,0,0,0,0,0,0,0,0,0,0,0,0,0,0,0,0,0,0,0,0,0,0,0,0,0,0,0,0,0,0,0,0,0,0,0,0,0,0,0,0,0,0,0,0,0,0],"sum_hessian":[1.24382E5,1.08363E5,1.6019E4,1.5577E4,9.2786E4,6.837E3,9.182E3,5.377E3,1.02E4,6.9083E4,2.3703E4,3.258E3,3.579E3,5.246E3,3.936E3,4.873E3,5.04E2,1.97E3,8.23E3,6.7785E4,1.298E3,2.167E3,2.1536E4,2.014E3,1.244E3,3.023E3,5.56E2,4.592E3,6.54E2,1.718E3,2.218E3,5.02E2,4.371E3,9.72E2,9.98E2,2.411E3,5.819E3,9.127E3,5.8658E4,5.92E2,7.06E2,1.235E3,9.32E2,1.5454E4,6.082E3,5.07E2,1.507E3,5.8E2,6.64E2,1.736E3,1.287E3,4.47E2,1.09E2,4.66E2,4.126E3,3.51E2,3.03E2,7.93E2,9.25E2,1.608E3,6.1E2,2.436E3,1.935E3,1.91E3,5.01E2,5.34E3,4.79E2,5.465E3,3.662E3,1.2548E4,4.611E4,4.94E2,9.8E1,2.09E2,4.97E2,1.17E3,6.5E1,5.3E2,4.02E2,1.4707E4,7.47E2,4.573E3,1.509E3,2.78E2,2.29E2,6.07E2,9E2,3.01E2,2.79E2,1.6E2,5.04E2,7.46E2,9.9E2,8.53E2,4.34E2,1.26E2,3.21E2,8.7E1,2.2E1,2.25E2,2.41E2,2.483E3,1.643E3,2.57E2,9.4E1,2.58E2,4.5E1,4.39E2,3.54E2,1.61E2,7.64E2,1.483E3,1.25E2,7.6E1,5.34E2],"tree_param":{"num_deleted":"0","num_feature":"8","num_nodes":"115","size_leaf_vector":"1"}},{"base_weights":[2.0661206E0,-6.3401337E1,4.4130142E2,-1.3972899E2,-5.0650177E1,8.214814E2,1.5873753E2,-1.5897987E2,-1.2323723E2,-3.0480793E1,-7.9858604E1,1.01769794E3,3.24704E2,2.5392664E2,2.012081E1,-1.6463101E2,-1.434906E2,-1.1115865E2,-1.2834889E2,-6.01305E1,-6.0561986E0,-9.1326706E1,5.7494312E1,7.5071063E2,1.4532076E3,2.579972E2,7.9417957E2,4.4815842E2,2.2149356E2,8.783129E1,-8.6328285E1,-1.8243336E1,-1.627096E2,-1.3812621E1,-1.4881106E1,-1.1596659E1,-1.0795618E2,-1.3035007E2,-1.0654107E1,-5.0345966E1,-1.1290931E2,7.093659E1,-2.45615E1,-7.679964E1,-1.2691208E2,1.1284509E1,1.5317134E2,4.2075623E2,8.5622235E2,1.9959065E3,1.0235869E3,3.7073444E2,7.5139404E1,5.4979913E2,1.6718354E3,5.001672E2,3.506435E2,2.5729764E2,6.1494125E1,1.3917958E2,-1.3648784E1,-9.172241E0,-1.7880878E2,-1.605889E1,-1.8110199E1,-1.1010619E1,-1.0336915E1,-1.2396985E1,-1.3813456E1,-7.612455E0,-6.350983E-1,-1.2025776E1,-6.005071E0,2.0114498E0,1.2267028E1,-5.837443E0,-1.507731E0,-9.677096E0,-5.2966084E0,-1.142579E1,-2.068591E1,4.9365544E0,-5.7593474E0,1.7527225E1,-2.1969175E0,3.3343674E1,4.99973E1,1.0013605E2,6.9410065E1,1.6909648E2,2.2887491E2,1.421188E2,7.897478E1,7.631116E0,4.3183006E1,1.2622311E1,-1.153032E1,3.9327934E1,7.952723E1,2.1741438E2,8.26802E1,4.4504314E1,5.672781E1,2.9935225E1,3.9796467E1,2.3446005E1,4.037569E1,1.2776469E1,-8.8969654E-1,2.4540579E1,8.920719E0,8.1694355E0,-6.001064E0,8.8397875E0,-6.0174227E0,-1.3086621E1,-2.7239746E1],"categories":[],"categories_nodes":[],"categories_segments":[],"categories_sizes":[],"default_left":[0,0,0,0,0,0,1,0,0,0,0,0,0,0,0,0,0,0,0,0,0,0,0,0,0,0,0,0,1,0,0,0,0,0,0,0,0,0,0,0,0,0,0,0,0,0,0,0,0,0,0,0,0,0,0,0,0,1,0,0,0,0,0,0,0,0,0,0,0,0,0,0,0,0,0,0,0,0,0,0,0,0,0,0,0,0,0,0,0,0,0,0,0,0,0,0,0,0,0,0,0,0,0,0,0,0,0,0,0,0,0,0,0,0,0,0,0],"id":4,"left_children":[1,3,5,7,9,11,13,15,17,19,21,23,25,27,29,31,33,35,37,39,41,43,45,47,49,51,53,55,57,59,61,-1,63,-1,-1,-1,65,67,-1,69,71,73,75,77,79,81,83,85,87,89,91,93,95,97,99,101,103,105,107,109,111,113,115,-1,-1,-1,-1,-1,-1,-1,-1,-1,-1,-1,-1,-1,-1,-1,-1,-1,-1,-1,-1,-1,-1,-1,-1,-1,-1,-1,-1,-1,-1,-1,-1,-1,-1,-1,-1,-1,-1,-1,-1,-1,-1,-1,-1,-1,-1,-1,-1,-1,-1,-1,-1,-1,-1],"loss_changes":[3.5617853E9,1.0490813E8,1.7258688E9,4.879136E6,5.441304E7,6.673797E8,1.2162456E8,5.99248E5,4.9912E5,3.9568944E7,5.9435136E7,5.698222E8,6.0581856E7,3.432771E7,2.7065364E7,1.48432E5,3.396E4,2.5666E4,2.40808E5,1.2739464E7,4.2689424E7,1.799152E7,1.2855171E7,1.056832E8,4.3279053E8,3.5038064E7,5.077096E7,3.785568E6,2.6822816E7,1.196075E7,1.0416087E7,0E0,1.546E5,0E0,0E0,0E0,3.442E3,2.48136E5,0E0,2.361434E7,1.491724E6,1.5262746E7,7.745666E6,1.1766048E7,1.0187088E7,5.1490605E6,3.669462E6,4.952E6,5.3588736E7,6.962355E7,9.585024E7,1.88904E7,6.3380875E6,6.987304E6,2.027472E7,1.623144E6,5.48336E5,1.2709136E7,4.0035842E6,8.068072E6,3.4173622E6,3.9714058E6,2.94364E6,0E0,0E0,0E0,0E0,0E0,0E0,0E0,0E0,0E0,0E0,0E0,0E0,0E0,0E0,0E0,0E0,0E0,0E0,0E0,0E0,0E0,0E0,0E0,0E0,0E0,0E0,0E0,0E0,0E0,0E0,0E0,0E0,0E0,0E0,0E0,0E0,0E0,0E0,0E0,0E0,0E0,0E0,0E0,0E0,0E0,0E0,0E0,0E0,0E0,0E0,0E0,0E0,0E0,0E0],"parents":[2147483647,0,0,1,1,2,2,3,3,4,4,5,5,6,6,7,7,8,8,9,9,10,10,11,11,12,12,13,13,14,14,15,15,16,16,17,17,18,18,19,19,20,20,21,21,22,22,23,23,24,24,25,25,26,26,27,27,28,28,29,29,30,30,32,32,36,36,37,37,39,39,40,40,41,41,42,42,43,43,44,44,45,45,46,46,47,47,48,48,49,49,50,50,51,51,52,52,53,53,54,54,55,55,56,56,57,57,58,58,59,59,60,60,61,61,62,62],"right_children":[2,4,6,8,10,12,14,16,18,20,22,24,26,28,30,32,34,36,38,40,42,44,46,48,50,52,54,56,58,60,62,-1,64,-1,-1,-1,66,68,-1,70,72,74,76,78,80,82,84,86,88,90,92,94,96,98,100,102,104,106,108,110,112,114,116,-1,-1,-1,-1,-1,-1,-1,-1,-1,-1,-1,-1,-1,-1,-1,-1,-1,-1,-1,-1,-1,-1,-1,-1,-1,-1,-1,-1,-1,-1,-1,-1,-1,-1,-1,-1,-1,-1,-1,-1,-1,-1,-1,-1,-1,-1,-1,-1,-1,-1,-1,-1,-1,-1],"split_conditions":[1.6292808E9,1.0321704E9,1.6729632E9,9.790272E8,1.3856689E9,5.7E0,4.8E0,9.665892E8,9.946368E8,1.1922624E9,1.6103772E9,1.6575156E9,1.54E1,1.6822584E9,1.12E1,9.353412E8,9.727704E8,9.851112E8,1.0290024E9,1.1669436E9,1.2294828E9,5.8E0,1.6229952E9,1.6356924E9,1.6635852E9,7.5E0,1.6606513E9,1.6791372E9,2.647E2,7.4E0,6.3E0,-1.8243336E1,9.63522E8,-1.3812621E1,-1.4881106E1,-1.1596659E1,9.914796E8,1.0132632E9,-1.0654107E1,1.1168604E9,1.189008E9,1.210932E9,1.2640392E9,1.5107364E9,1.5790104E9,4.9E0,6.2E0,2E-1,3.7E0,1.6606513E9,5.3E0,1E-1,1.6635852E9,1.6575156E9,1.88E1,2E-1,2E-1,1.64E1,4.601E2,4E0,1.6854084E9,1.6948008E9,7.9E0,-1.605889E1,-1.8110199E1,-1.1010619E1,-1.0336915E1,-1.2396985E1,-1.3813456E1,-7.612455E0,-6.350983E-1,-1.2025776E1,-6.005071E0,2.0114498E0,1.2267028E1,-5.837443E0,-1.507731E0,-9.677096E0,-5.2966084E0,-1.142579E1,-2.068591E1,4.9365544E0,-5.7593474E0,1.7527225E1,-2.1969175E0,3.3343674E1,4.99973E1,1.0013605E2,6.9410065E1,1.6909648E2,2.2887491E2,1.421188E2,7.897478E1,7.631116E0,4.3183006E1,1.2622311E1,-1.153032E1,3.9327934E1,7.952723E1,2.1741438E2,8.26802E1,4.4504314E1,5.672781E1,2.9935225E1,3.9796467E1,2.3446005E1,4.037569E1,1.2776469E1,-8.8969654E-1,2.4540579E1,8.920719E0,8.1694355E0,-6.001064E0,8.8397875E0,-6.0174227E0,-1.3086621E1,-2.7239746E1],"split_indices":[0,0,0,0,0,7,7,0,0,0,0,0,6,0,6,0,0,0,0,0,0,7,0,0,0,7,0,0,4,7,7,0,0,0,0,0,0,0,0,0,0,0,0,0,0,7,7,4,7,0,6,4,0,0,6,4,4,6,4,6,0,0,7,0,0,0,0,0,0,0,0,0,0,0,0,0,0,0,0,0,0,0,0,0,0,0,0,0,0,0,0,0,0,0,0,0,0,0,0,0,0,0,0,0,0,0,0,0,0,0,0,0,0,0,0,0,0],"split_type":[0,0,0,0,0,0,0,0,0,0,0,0,0,0,0,0,0,0,0,0,0,0,0,0,0,0,0,0,0,0,0,0,0,0,0,0,0,0,0,0,0,0,0,0,0,0,0,0,0,0,0,0,0,0,0,0,0,0,0,0,0,0,0,0,0,0,0,0,0,0,0,0,0,0,0,0,0,0,0,0,0,0,0,0,0,0,0,0,0,0,0,0,0,0,0,0,0,0,0,0,0,0,0,0,0,0,0,0,0,0,0,0,0,0,0,0,0],"sum_hessian":[1.23862E5,1.07796E5,1.6066E4,1.5429E4,9.2367E4,6.849E3,9.217E3,7.115E3,8.314E3,5.4639E4,3.7728E4,4.909E3,1.94E3,5.464E3,3.753E3,5.206E3,1.909E3,2.479E3,5.835E3,2.4679E4,2.996E4,3.4821E4,2.907E3,3.045E3,1.864E3,1.7E3,2.4E2,7.8E2,4.684E3,2.294E3,1.459E3,4.98E2,4.708E3,9.64E2,9.45E2,9.77E2,1.502E3,5.34E3,4.95E2,2.0821E4,3.858E3,5.805E3,2.4155E4,2.4729E4,1.0092E4,1.961E3,9.46E2,7.39E2,2.306E3,8.22E2,1.042E3,1.051E3,6.49E2,1.89E2,5.1E1,5.06E2,2.74E2,3.827E3,8.57E2,1.523E3,7.71E2,7.96E2,6.63E2,4.23E3,4.78E2,1.007E3,4.95E2,2.944E3,2.396E3,1.3128E4,7.693E3,3.386E3,4.72E2,2.929E3,2.876E3,5.29E3,1.8865E4,1.3453E4,1.1276E4,8.715E3,1.377E3,1.263E3,6.98E2,8.4E2,1.06E2,3.54E2,3.85E2,1.214E3,1.092E3,4.06E2,4.16E2,3.84E2,6.58E2,1.81E2,8.7E2,5.12E2,1.37E2,1.17E2,7.2E1,3.1E1,2E1,2.82E2,2.24E2,1.35E2,1.39E2,3.313E3,5.14E2,4.41E2,4.16E2,4.86E2,1.037E3,2.52E2,5.19E2,2.73E2,5.23E2,4.4E2,2.23E2],"tree_param":{"num_deleted":"0","num_feature":"8","num_nodes":"117","size_leaf_vector":"1"}},{"base_weights":[2.7328914E-1,-5.721457E1,3.886671E2,-1.2504375E2,-4.544143E1,7.2048737E2,1.4157535E2,-1.4394144E2,-1.0915748E2,-9.500276E1,-3.520123E1,1.024461E3,4.6309702E2,2.5764105E2,5.2938858E1,-1.492235E2,-1.2981207E2,-1.1172592E2,-8.938046E1,-1.0170305E2,2.9470282E0,-3.7063942E1,1.5357336E2,7.479503E2,1.4682804E3,3.061746E2,7.0056323E2,4.2303214E2,2.2955434E2,1.75861E2,6.455082E0,-1.6334957E1,-1.47725E2,-1.2242717E1,-1.3212714E1,-1.0565631E2,-1.2509979E2,-9.292823E0,-8.54924E0,-8.7555824E1,-1.367922E2,3.8569977E1,-6.3665134E1,-3.0113943E1,-8.3807365E1,1.742174E2,-5.8548634E1,4.189025E2,8.5576196E2,1.9042225E3,1.0988524E3,4.5493338E2,1.710012E2,1.1342687E3,3.4901422E2,5.683474E2,3.723708E2,2.5793402E2,6.437953E1,2.1536264E2,-4.5758186E1,5.772462E1,-9.3607605E1,-1.449439E1,-1.5896991E1,-1.0102461E1,-1.09374E1,-1.2874743E1,-1.1929893E1,-1.1258218E1,-7.2842765E0,-1.2584265E1,-2.0481203E1,1.0478617E0,1.0131106E1,-1.4445955E1,-4.561511E0,-6.9324074E0,-2.1261106E0,1.8401879E0,-9.655336E0,-3.5645413E0,1.9054483E1,1.5780044E0,-2.9645756E1,3.2328102E1,5.2451733E1,8.925021E1,4.7762035E1,1.6046335E2,2.2023233E2,9.311423E1,1.3689793E2,3.1392496E1,5.851355E1,2.413864E1,7.8766793E-1,8.9192406E1,1.6138023E2,4.8868134E1,-9.457065E0,4.9871864E1,6.790281E1,3.2831017E1,4.2949368E1,2.0490614E1,3.2629795E1,1.3383272E1,-1.2026801E0,3.0264551E1,1.3954757E1,7.705032E0,-1.6814688E1,8.004037E0,-5.9633174E0,-6.102572E0,-2.2319057E1],"categories":[],"categories_nodes":[],"categories_segments":[],"categories_sizes":[],"default_left":[0,0,0,0,0,0,1,0,0,0,0,0,0,0,0,0,0,0,0,0,0,1,0,0,0,0,0,0,1,0,0,0,0,0,0,0,0,0,0,0,0,0,0,0,0,0,0,0,0,0,0,1,0,0,0,0,0,1,0,0,0,1,0,0,0,0,0,0,0,0,0,0,0,0,0,0,0,0,0,0,0,0,0,0,0,0,0,0,0,0,0,0,0,0,0,0,0,0,0,0,0,0,0,0,0,0,0,0,0,0,0,0,0,0,0,0,0],"id":5,"left_children":[1,3,5,7,9,11,13,15,17,19,21,23,25,27,29,31,33,35,37,39,41,43,45,47,49,51,53,55,57,59,61,-1,63,-1,-1,65,67,-1,-1,69,71,73,75,77,79,81,83,85,87,89,91,93,95,97,99,101,103,105,107,109,111,113,115,-1,-1,-1,-1,-1,-1,-1,-1,-1,-1,-1,-1,-1,-1,-1,-1,-1,-1,-1,-1,-1,-1,-1,-1,-1,-1,-1,-1,-1,-1,-1,-1,-1,-1,-1,-1,-1,-1,-1,-1,-1,-1,-1,-1,-1,-1,-1,-1,-1,-1,-1,-1,-1,-1],"loss_changes":[2.7741338E9,8.641952E7,1.3132966E9,4.789488E6,4.6800464E7,5.3445197E8,9.445794E7,5.25968E5,4.31936E5,1.0363792E7,2.6881352E7,3.8350848E8,1.378105E8,1.8372544E7,2.9756774E7,8.8312E4,1.7948E4,6.11496E5,5.918E3,7.32504E6,2.4038522E6,2.4585016E7,3.281356E6,6.821504E7,1.9148902E8,4.480376E7,2.2419066E8,4.0288E6,1.5925968E7,1.2519784E7,1.9397436E7,0E0,1.2748E5,0E0,0E0,8.0216E4,3.5364E4,0E0,0E0,3.871296E6,3.135848E6,1.162177E6,5.08205E5,2.2870328E7,1.27636E7,2.34025E6,1.1894695E6,4.667872E6,1.9787968E7,4.558528E7,2.8308096E7,1.9314208E7,1.3442996E7,7.514451E7,5.053891E7,7.94224E5,9.41248E5,1.0453456E7,2.6549412E6,7.98462E6,3.2745465E6,6.5520915E6,5.394834E6,0E0,0E0,0E0,0E0,0E0,0E0,0E0,0E0,0E0,0E0,0E0,0E0,0E0,0E0,0E0,0E0,0E0,0E0,0E0,0E0,0E0,0E0,0E0,0E0,0E0,0E0,0E0,0E0,0E0,0E0,0E0,0E0,0E0,0E0,0E0,0E0,0E0,0E0,0E0,0E0,0E0,0E0,0E0,0E0,0E0,0E0,0E0,0E0,0E0,0E0,0E0,0E0,0E0,0E0],"parents":[2147483647,0,0,1,1,2,2,3,3,4,4,5,5,6,6,7,7,8,8,9,9,10,10,11,11,12,12,13,13,14,14,15,15,16,16,17,17,18,18,19,19,20,20,21,21,22,22,23,23,24,24,25,25,26,26,27,27,28,28,29,29,30,30,32,32,35,35,36,36,39,39,40,40,41,41,42,42,43,43,44,44,45,45,46,46,47,47,48,48,49,49,50,50,51,51,52,52,53,53,54,54,55,55,56,56,57,57,58,58,59,59,60,60,61,61,62,62],"right_children":[2,4,6,8,10,12,14,16,18,20,22,24,26,28,30,32,34,36,38,40,42,44,46,48,50,52,54,56,58,60,62,-1,64,-1,-1,66,68,-1,-1,70,72,74,76,78,80,82,84,86,88,90,92,94,96,98,100,102,104,106,108,110,112,114,116,-1,-1,-1,-1,-1,-1,-1,-1,-1,-1,-1,-1,-1,-1,-1,-1,-1,-1,-1,-1,-1,-1,-1,-1,-1,-1,-1,-1,-1,-1,-1,-1,-1,-1,-1,-1,-1,-1,-1,-1,-1,-1,-1,-1,-1,-1,-1,-1,-1,-1,-1,-1,-1,-1],"split_conditions":[1.6292808E9,1.0352808E9,1.6729632E9,9.790272E8,3E-1,4.1E0,3.9E0,9.665892E8,1.0290024E9,1.6103772E9,1.6229952E9,1.6575156E9,1.6543764E9,1.6822584E9,1.6885297E9,9.353412E8,9.697464E8,1.0132632E9,1.0321704E9,5.5E0,4.2E0,6E0,6.7E0,1.6356924E9,1.6635852E9,5.8E0,1.6635852E9,1.6760448E9,2.589E2,4.601E2,6.4E0,-1.6334957E1,9.604224E8,-1.2242717E1,-1.3212714E1,9.946368E8,1.0227816E9,-9.292823E0,-8.54924E0,1.4763456E9,1.5790104E9,1.6229952E9,9.989E2,1.1136852E9,1.3199904E9,1.0041E3,1.0182E3,5E-1,4.686E2,1.6606513E9,1.6697196E9,3E-1,8.1E0,1.6606513E9,7.1E0,3E-1,8E-1,2E-1,1.7133876E9,5.6E0,1.022E3,3.848E2,2.875E2,-1.449439E1,-1.5896991E1,-1.0102461E1,-1.09374E1,-1.2874743E1,-1.1929893E1,-1.1258218E1,-7.2842765E0,-1.2584265E1,-2.0481203E1,1.0478617E0,1.0131106E1,-1.4445955E1,-4.561511E0,-6.9324074E0,-2.1261106E0,1.8401879E0,-9.655336E0,-3.5645413E0,1.9054483E1,1.5780044E0,-2.9645756E1,3.2328102E1,5.2451733E1,8.925021E1,4.7762035E1,1.6046335E2,2.2023233E2,9.311423E1,1.3689793E2,3.1392496E1,5.851355E1,2.413864E1,7.8766793E-1,8.9192406E1,1.6138023E2,4.8868134E1,-9.457065E0,4.9871864E1,6.790281E1,3.2831017E1,4.2949368E1,2.0490614E1,3.2629795E1,1.3383272E1,-1.2026801E0,3.0264551E1,1.3954757E1,7.705032E0,-1.6814688E1,8.004037E0,-5.9633174E0,-6.102572E0,-2.2319057E1],"split_indices":[0,0,0,0,4,7,7,0,0,0,0,0,0,0,0,0,0,0,0,7,7,7,7,0,0,7,0,0,4,4,7,0,0,0,0,0,0,0,0,0,0,0,3,0,0,3,3,4,4,0,0,4,7,0,7,4,4,4,0,7,3,4,4,0,0,0,0,0,0,0,0,0,0,0,0,0,0,0,0,0,0,0,0,0,0,0,0,0,0,0,0,0,0,0,0,0,0,0,0,0,0,0,0,0,0,0,0,0,0,0,0,0,0,0,0,0,0],"split_type":[0,0,0,0,0,0,0,0,0,0,0,0,0,0,0,0,0,0,0,0,0,0,0,0,0,0,0,0,0,0,0,0,0,0,0,0,0,0,0,0,0,0,0,0,0,0,0,0,0,0,0,0,0,0,0,0,0,0,0,0,0,0,0,0,0,0,0,0,0,0,0,0,0,0,0,0,0,0,0,0,0,0,0,0,0,0,0,0,0,0,0,0,0,0,0,0,0,0,0,0,0,0,0,0,0,0,0,0,0,0,0,0,0,0,0,0,0],"sum_hessian":[1.24243E5,1.08225E5,1.6018E4,1.6005E4,9.222E4,6.836E3,9.182E3,7.306E3,8.699E3,1.579E4,7.643E4,3.133E3,3.703E3,3.975E3,5.207E3,5.311E3,1.995E3,7.695E3,1.004E3,1.4779E4,1.011E3,7.5684E4,7.46E2,1.932E3,1.201E3,2.231E3,1.472E3,5.75E2,3.4E3,1.428E3,3.779E3,4.99E2,4.812E3,4.89E2,1.506E3,5.299E3,2.396E3,5.13E2,4.91E2,1.0535E4,4.244E3,6.59E2,3.52E2,6.5889E4,9.795E3,6.8E2,6.6E1,4.78E2,1.454E3,5.49E2,6.52E2,1.061E3,1.17E3,6.58E2,8.14E2,1.46E2,4.29E2,2.901E3,4.99E2,1.212E3,2.16E2,2.499E3,1.28E3,3.869E3,9.43E2,2.372E3,2.927E3,1.458E3,9.38E2,3.898E3,6.637E3,3.658E3,5.86E2,4.56E2,2.03E2,6.3E1,2.89E2,1.2135E4,5.3754E4,1.086E3,8.709E3,4.9E1,6.31E2,5.1E1,1.5E1,2.53E2,2.25E2,1.324E3,1.3E2,2.77E2,2.72E2,4.05E2,2.47E2,5.11E2,5.5E2,8.17E2,3.53E2,4.39E2,2.19E2,6.19E2,1.95E2,9.3E1,5.3E1,2.46E2,1.83E2,1.636E3,1.265E3,2.61E2,2.38E2,5.62E2,6.5E2,1.08E2,1.08E2,2.1E3,3.99E2,1.024E3,2.56E2],"tree_param":{"num_deleted":"0","num_feature":"8","num_nodes":"117","size_leaf_vector":"1"}},{"base_weights":[-8.7082905E-1,-5.192155E1,3.4516412E2,-1.13651855E2,-4.1556915E1,6.46242E2,1.2630594E2,-1.333992E2,-1.03321526E2,-2.4452572E1,-6.630397E1,9.303469E2,4.1365985E2,2.1062007E2,2.0384672E1,-1.4688037E1,-1.3201588E2,-1.1600962E2,-1.00286224E2,-4.9340675E1,-3.7635553E0,-7.578037E1,4.8486874E1,6.8559467E2,1.3215721E3,3.3305942E2,8.7823486E2,2.4169284E2,6.6458084E1,9.7856346E1,-4.004401E1,-1.2707019E2,-1.3698271E2,-1.1078502E1,-1.2090597E1,-9.4479324E1,-1.0863255E2,-4.011821E1,-9.882637E1,6.593873E1,-1.889688E1,-6.783186E1,-1.2528225E2,1.0243849E1,1.2270834E2,3.7423096E2,7.901554E2,1.7182288E3,9.866465E2,4.6043198E2,1.5137366E2,5.969409E2,1.7943694E3,4.1893976E2,2.2060619E2,1.3123012E2,-3.6052825E0,1.8773955E2,4.464989E1,8.963634E0,-1.3909737E2,-1.3137893E1,-1.0938759E1,-1.4517883E1,-1.349254E1,-9.601985E0,-8.024348E0,-1.1232516E1,-8.631381E0,-6.170121E0,-3.9655602E-1,-1.0528105E1,-5.413415E0,1.4136246E0,1.2679404E1,-5.905883E-1,-4.2821937E0,-8.832846E0,-1.2538725E0,-1.6778547E1,-8.225108E0,3.3682868E0,-7.8381267E0,1.4928807E1,1.5766534E0,2.9361729E1,4.7474915E1,8.220233E1,3.7341278E1,1.4471388E2,2.011458E2,1.3601225E2,6.1358986E1,3.3023567E1,5.971761E1,2.2960192E1,-1.5316464E-1,1.7938595E1,7.3732765E1,2.2668456E2,1.5456528E2,3.7509945E1,4.8961445E1,1.723005E1,2.7856833E1,3.1543142E1,1.0541889E1,5.5012474E0,-1.0104442E1,2.2377987E1,8.147138E0,2.0649256E1,1.6230739E0,2.5700662E0,-2.0135557E1,-1.0399268E1,-2.1816359E1],"categories":[],"categories_nodes":[],"categories_segments":[],"categories_sizes":[],"default_left":[0,0,0,0,0,0,1,0,0,0,0,0,0,1,0,0,0,0,0,0,0,0,0,0,0,0,0,0,0,0,0,0,0,0,0,0,0,0,0,0,0,0,0,0,0,0,0,0,0,0,0,0,0,0,0,0,0,0,0,0,0,0,0,0,0,0,0,0,0,0,0,0,0,0,0,0,0,0,0,0,0,0,0,0,0,0,0,0,0,0,0,0,0,0,0,0,0,0,0,0,0,0,0,0,0,0,0,0,0,0,0,0,0,0,0,0,0],"id":6,"left_children":[1,3,5,7,9,11,13,15,17,19,21,23,25,27,29,-1,31,33,35,37,39,41,43,45,47,49,51,53,55,57,59,61,63,-1,-1,65,67,69,71,73,75,77,79,81,83,85,87,89,91,93,95,97,99,101,103,105,107,109,111,113,115,-1,-1,-1,-1,-1,-1,-1,-1,-1,-1,-1,-1,-1,-1,-1,-1,-1,-1,-1,-1,-1,-1,-1,-1,-1,-1,-1,-1,-1,-1,-1,-1,-1,-1,-1,-1,-1,-1,-1,-1,-1,-1,-1,-1,-1,-1,-1,-1,-1,-1,-1,-1,-1,-1,-1,-1],"loss_changes":[2.197939E9,6.936688E7,1.05394854E9,3.16592E6,3.9295456E7,4.4451635E8,8.272936E7,8.0376E4,3.82648E5,2.8267368E7,4.127715E7,2.8922624E8,1.3840358E8,2.3089264E7,1.9230886E7,0E0,1.02024E5,3.7E4,3.90504E5,1.1369032E7,3.1623912E7,1.3782096E7,8.213227E6,6.045459E7,1.5307546E8,7.30121E7,1.3989245E8,1.5765984E7,4.1574155E6,8.599876E6,1.1205137E7,1.72296E5,2.1104E4,0E0,0E0,9.94E4,2.6936E5,1.6391156E7,1.123384E6,1.6857544E7,7.655626E6,3.422744E7,8.853016E6,3.9723335E6,2.79465E6,3.677188E6,1.8232896E7,3.937856E7,8.74992E7,3.284624E7,1.5586204E7,2.4487792E7,1.1537888E7,1.210624E6,1.0574832E7,2.229872E6,2.524402E6,2.543998E6,5.203204E6,5.4437585E6,2.097868E6,0E0,0E0,0E0,0E0,0E0,0E0,0E0,0E0,0E0,0E0,0E0,0E0,0E0,0E0,0E0,0E0,0E0,0E0,0E0,0E0,0E0,0E0,0E0,0E0,0E0,0E0,0E0,0E0,0E0,0E0,0E0,0E0,0E0,0E0,0E0,0E0,0E0,0E0,0E0,0E0,0E0,0E0,0E0,0E0,0E0,0E0,0E0,0E0,0E0,0E0,0E0,0E0,0E0,0E0,0E0,0E0],"parents":[2147483647,0,0,1,1,2,2,3,3,4,4,5,5,6,6,7,7,8,8,9,9,10,10,11,11,12,12,13,13,14,14,16,16,17,17,18,18,19,19,20,20,21,21,22,22,23,23,24,24,25,25,26,26,27,27,28,28,29,29,30,30,31,31,32,32,35,35,36,36,37,37,38,38,39,39,40,40,41,41,42,42,43,43,44,44,45,45,46,46,47,47,48,48,49,49,50,50,51,51,52,52,53,53,54,54,55,55,56,56,57,57,58,58,59,59,60,60],"right_children":[2,4,6,8,10,12,14,16,18,20,22,24,26,28,30,-1,32,34,36,38,40,42,44,46,48,50,52,54,56,58,60,62,64,-1,-1,66,68,70,72,74,76,78,80,82,84,86,88,90,92,94,96,98,100,102,104,106,108,110,112,114,116,-1,-1,-1,-1,-1,-1,-1,-1,-1,-1,-1,-1,-1,-1,-1,-1,-1,-1,-1,-1,-1,-1,-1,-1,-1,-1,-1,-1,-1,-1,-1,-1,-1,-1,-1,-1,-1,-1,-1,-1,-1,-1,-1,-1,-1,-1,-1,-1,-1,-1,-1,-1,-1,-1,-1,-1],"split_conditions":[1.6292808E9,1.0321704E9,1.6729632E9,9.665892E8,1.3856689E9,4E0,4.6E0,9.353412E8,9.790272E8,1.1922624E9,1.6103772E9,1.6575156E9,1.53E1,2.424E2,7.7E0,-1.4688037E1,9.510012E8,9.727704E8,1.0101852E9,1.1669436E9,1.2263616E9,1.5790104E9,1.6229952E9,1.6356924E9,1.6635852E9,6.2E0,1.6606513E9,1.6791372E9,1.6948008E9,1.6854084E9,6.8E0,9.478404E8,9.541008E8,-1.1078502E1,-1.2090597E1,1.0070532E9,1.0290024E9,1.1168604E9,1.189008E9,1.210932E9,1.3295844E9,1.5262524E9,1.5945948E9,6.1E0,5.2E0,1.6326108E9,4.937E2,1.6606513E9,9.3E1,2E-1,8.1E0,1.6513416E9,2.164E2,2E-1,2E-1,8.8E0,4.772E2,7.7E0,1.2E0,6.166E2,8.6E0,-1.3137893E1,-1.0938759E1,-1.4517883E1,-1.349254E1,-9.601985E0,-8.024348E0,-1.1232516E1,-8.631381E0,-6.170121E0,-3.9655602E-1,-1.0528105E1,-5.413415E0,1.4136246E0,1.2679404E1,-5.905883E-1,-4.2821937E0,-8.832846E0,-1.2538725E0,-1.6778547E1,-8.225108E0,3.3682868E0,-7.8381267E0,1.4928807E1,1.5766534E0,2.9361729E1,4.7474915E1,8.220233E1,3.7341278E1,1.4471388E2,2.011458E2,1.3601225E2,6.1358986E1,3.3023567E1,5.971761E1,2.2960192E1,-1.5316464E-1,1.7938595E1,7.3732765E1,2.2668456E2,1.5456528E2,3.7509945E1,4.8961445E1,1.723005E1,2.7856833E1,3.1543142E1,1.0541889E1,5.5012474E0,-1.0104442E1,2.2377987E1,8.147138E0,2.0649256E1,1.6230739E0,2.5700662E0,-2.0135557E1,-1.0399268E1,-2.1816359E1],"split_indices":[0,0,0,0,0,7,7,0,0,0,0,0,6,4,6,0,0,0,0,0,0,0,0,0,0,7,0,0,0,0,7,0,0,0,0,0,0,0,0,0,0,0,0,7,7,0,4,0,5,4,7,0,4,4,4,6,4,7,6,4,7,0,0,0,0,0,0,0,0,0,0,0,0,0,0,0,0,0,0,0,0,0,0,0,0,0,0,0,0,0,0,0,0,0,0,0,0,0,0,0,0,0,0,0,0,0,0,0,0,0,0,0,0,0,0,0,0],"split_type":[0,0,0,0,0,0,0,0,0,0,0,0,0,0,0,0,0,0,0,0,0,0,0,0,0,0,0,0,0,0,0,0,0,0,0,0,0,0,0,0,0,0,0,0,0,0,0,0,0,0,0,0,0,0,0,0,0,0,0,0,0,0,0,0,0,0,0,0,0,0,0,0,0,0,0,0,0,0,0,0,0,0,0,0,0,0,0,0,0,0,0,0,0,0,0,0,0,0,0,0,0,0,0,0,0,0,0,0,0,0,0,0,0,0,0,0,0],"sum_hessian":[1.24419E5,1.08424E5,1.5995E4,1.5586E4,9.2838E4,6.732E3,9.263E3,5.349E3,1.0237E4,5.4897E4,3.7941E4,3.029E3,3.703E3,5.157E3,4.106E3,4.88E2,4.861E3,1.969E3,8.268E3,2.4919E4,2.9978E4,3.5048E4,2.893E3,1.865E3,1.164E3,3.157E3,5.46E2,4.242E3,9.15E2,1.799E3,2.307E3,2.449E3,2.412E3,9.64E2,1.005E3,4.883E3,3.385E3,2.1006E4,3.913E3,5.347E3,2.4631E4,3.0201E4,4.847E3,1.91E3,9.83E2,4.7E2,1.395E3,5.31E2,6.33E2,1.855E3,1.302E3,4.19E2,1.27E2,4.49E2,3.793E3,4.75E2,4.4E2,6.68E2,1.131E3,1.544E3,7.63E2,1.964E3,4.85E2,4.7E2,1.942E3,4.401E3,4.82E2,2.901E3,4.84E2,1.3153E4,7.853E3,3.418E3,4.95E2,2.889E3,2.458E3,1.5964E4,8.667E3,2.2033E4,8.168E3,2.437E3,2.41E3,1.511E3,3.99E2,7.87E2,1.96E2,2.63E2,2.07E2,1.295E3,1E2,2.79E2,2.52E2,3.15E2,3.18E2,9.52E2,9.03E2,8.61E2,4.41E2,1.06E2,3.13E2,4.1E1,8.6E1,2.81E2,1.68E2,2.071E3,1.722E3,5.7E1,4.18E2,2.75E2,1.65E2,4.98E2,1.7E2,1.68E2,9.63E2,1.431E3,1.13E2,5.3E2,2.33E2],"tree_param":{"num_deleted":"0","num_feature":"8","num_nodes":"117","size_leaf_vector":"1"}},{"base_weights":[1.3646097E-1,-4.6118855E1,3.1340033E2,-1.0218573E2,-3.6745003E1,5.8006354E2,1.1712884E2,-1.1765413E2,-8.858401E1,-2.452286E1,-6.7583916E1,7.7772473E2,3.0819745E2,1.9480917E2,1.904679E1,-1.2163838E2,-1.0639634E2,-7.966485E1,-9.238943E1,-2.6842453E1,1.05373505E2,1.3579528E1,-7.586474E1,5.71512E2,1.1367578E3,2.3896211E2,6.6036E2,2.2872897E2,8.5141365E1,1.3387852E2,-1.7003859E1,-1.1981127E2,-1.29715185E1,-1.0346656E1,-1.0921153E1,-8.092218E1,-7.450081E0,-9.415943E1,-7.4087257E0,-5.6282887E1,-1.9771969E1,4.494243E1,1.3731218E2,3.8818905E1,-2.0231035E1,-6.922648E1,-1.26189156E2,3.5112323E2,6.925011E2,8.888635E2,1.7085295E3,3.72438E2,1.4430956E2,3.193705E2,1.0014419E3,2.8280954E2,1.7313667E2,1.4985454E2,1.5888846E1,1.5320358E2,-1.4799966E2,1.0671902E2,-4.0527454E1,-1.3146591E1,-1.1833343E1,-7.9577675E0,-8.490805E0,-8.879874E0,-1.0064326E1,-4.2573696E-1,-6.863631E0,-5.690086E-1,-4.7954664E0,2.285165E-1,6.8979783E0,9.065636E0,1.7080927E1,4.3227E0,-1.5695838E1,-3.5335114E0,3.2112116E-1,-9.580673E0,-5.8085003E0,-1.1753011E1,-1.8206396E1,2.2421156E1,4.3111107E1,8.59432E1,6.032258E1,1.1656075E2,6.570401E1,1.2972786E2,2.1492744E2,2.4518343E1,4.9053253E1,5.335815E0,2.2466179E1,1.7863464E1,4.2153927E1,1.3334453E2,6.637655E1,2.335101E1,3.5787148E1,1.3612932E1,3.60763E1,3.1138395E1,1.2300433E1,3.9092643E0,-1.7506565E1,2.1167234E1,7.510299E0,3.099132E0,-4.4015133E1,1.4904098E1,1.2036951E-1,1.1930003E0,-9.605815E0],"categories":[],"categories_nodes":[],"categories_segments":[],"categories_sizes":[],"default_left":[0,0,0,0,1,0,1,0,0,0,0,0,0,1,0,0,0,0,0,0,0,0,0,0,0,0,0,0,0,0,0,0,0,0,0,0,0,0,0,0,0,0,0,0,0,0,0,0,0,0,0,0,0,0,0,0,0,0,0,0,0,0,0,0,0,0,0,0,0,0,0,0,0,0,0,0,0,0,0,0,0,0,0,0,0,0,0,0,0,0,0,0,0,0,0,0,0,0,0,0,0,0,0,0,0,0,0,0,0,0,0,0,0,0,0,0,0],"id":7,"left_children":[1,3,5,7,9,11,13,15,17,19,21,23,25,27,29,31,33,35,37,39,41,43,45,47,49,51,53,55,57,59,61,63,-1,-1,-1,65,-1,67,-1,69,71,73,75,77,79,81,83,85,87,89,91,93,95,97,99,101,103,105,107,109,111,113,115,-1,-1,-1,-1,-1,-1,-1,-1,-1,-1,-1,-1,-1,-1,-1,-1,-1,-1,-1,-1,-1,-1,-1,-1,-1,-1,-1,-1,-1,-1,-1,-1,-1,-1,-1,-1,-1,-1,-1,-1,-1,-1,-1,-1,-1,-1,-1,-1,-1,-1,-1,-1,-1,-1],"loss_changes":[1.8024404E9,5.69604E7,8.3755546E8,3.256E6,3.500003E7,3.643684E8,7.024389E7,3.12744E5,2.73164E5,2.0041836E7,1.7715568E7,2.9016858E8,6.952621E7,1.9119472E7,1.6875932E7,6.3496E4,4.42E3,1.0067E4,1.80492E5,1.3600144E7,2.246242E6,2.0838311E6,7.981136E6,6.633843E7,2.0145152E8,3.014112E7,5.4227376E7,1.1763424E7,5.451666E6,5.328356E6,9.035318E6,5.99E4,0E0,0E0,0E0,3.866E3,0E0,1.7434E5,0E0,8.131708E6,2.0910168E7,4.1511638E5,1.176958E6,1.213266E6,3.6976628E5,6.252536E6,1.326536E6,8.907624E6,2.3489984E7,6.3454016E7,7.551475E7,1.477256E7,1.021942E7,3.318098E6,2.534856E7,7.280448E6,1.3421384E7,2.689734E6,2.616626E6,4.148702E6,3.3080692E6,2.2147655E6,7.598246E6,0E0,0E0,0E0,0E0,0E0,0E0,0E0,0E0,0E0,0E0,0E0,0E0,0E0,0E0,0E0,0E0,0E0,0E0,0E0,0E0,0E0,0E0,0E0,0E0,0E0,0E0,0E0,0E0,0E0,0E0,0E0,0E0,0E0,0E0,0E0,0E0,0E0,0E0,0E0,0E0,0E0,0E0,0E0,0E0,0E0,0E0,0E0,0E0,0E0,0E0,0E0,0E0,0E0,0E0],"parents":[2147483647,0,0,1,1,2,2,3,3,4,4,5,5,6,6,7,7,8,8,9,9,10,10,11,11,12,12,13,13,14,14,15,15,16,16,17,17,18,18,19,19,20,20,21,21,22,22,23,23,24,24,25,25,26,26,27,27,28,28,29,29,30,30,31,31,35,35,37,37,39,39,40,40,41,41,42,42,43,43,44,44,45,45,46,46,47,47,48,48,49,49,50,50,51,51,52,52,53,53,54,54,55,55,56,56,57,57,58,58,59,59,60,60,61,61,62,62],"right_children":[2,4,6,8,10,12,14,16,18,20,22,24,26,28,30,32,34,36,38,40,42,44,46,48,50,52,54,56,58,60,62,64,-1,-1,-1,66,-1,68,-1,70,72,74,76,78,80,82,84,86,88,90,92,94,96,98,100,102,104,106,108,110,112,114,116,-1,-1,-1,-1,-1,-1,-1,-1,-1,-1,-1,-1,-1,-1,-1,-1,-1,-1,-1,-1,-1,-1,-1,-1,-1,-1,-1,-1,-1,-1,-1,-1,-1,-1,-1,-1,-1,-1,-1,-1,-1,-1,-1,-1,-1,-1,-1,-1,-1,-1,-1,-1,-1,-1],"split_conditions":[1.6292808E9,1.0321704E9,1.6729632E9,9.790272E8,4.4E0,4.8E0,4.6E0,9.665892E8,9.946368E8,1.6166268E9,1.3234248E9,1.6575156E9,1.49E1,1.665E2,1.6854084E9,9.604224E8,9.727704E8,9.914796E8,1.0290024E9,1.1136852E9,5E-1,1.3108608E9,8.5E0,1.638756E9,1.52E1,6E0,1.6575156E9,1.7042255E9,1.7072748E9,6.296E2,4.1E0,9.353412E8,-1.29715185E1,-1.0346656E1,-1.0921153E1,9.883332E8,-7.450081E0,1.0132632E9,-7.4087257E0,1.0478592E9,1.3919904E9,7.9E0,1.6229952E9,1.14E1,1.33E1,3E-1,1.5790104E9,1.6326108E9,2.6E0,9.16E1,1.6606513E9,1.6481448E9,2E-1,1.6513416E9,3.775E2,2E-1,1.7290008E9,8.1E0,5.92E2,6.5E0,1.46E1,7.7E0,6.2E0,-1.3146591E1,-1.1833343E1,-7.9577675E0,-8.490805E0,-8.879874E0,-1.0064326E1,-4.2573696E-1,-6.863631E0,-5.690086E-1,-4.7954664E0,2.285165E-1,6.8979783E0,9.065636E0,1.7080927E1,4.3227E0,-1.5695838E1,-3.5335114E0,3.2112116E-1,-9.580673E0,-5.8085003E0,-1.1753011E1,-1.8206396E1,2.2421156E1,4.3111107E1,8.59432E1,6.032258E1,1.1656075E2,6.570401E1,1.2972786E2,2.1492744E2,2.4518343E1,4.9053253E1,5.335815E0,2.2466179E1,1.7863464E1,4.2153927E1,1.3334453E2,6.637655E1,2.335101E1,3.5787148E1,1.3612932E1,3.60763E1,3.1138395E1,1.2300433E1,3.9092643E0,-1.7506565E1,2.1167234E1,7.510299E0,3.099132E0,-4.4015133E1,1.4904098E1,1.2036951E-1,1.1930003E0,-9.605815E0],"split_indices":[0,0,0,0,7,7,7,0,0,0,0,0,6,4,0,0,0,0,0,0,4,0,7,0,6,7,0,0,0,4,6,0,0,0,0,0,0,0,0,0,0,6,0,7,6,4,0,0,7,5,0,0,4,0,4,4,0,6,4,7,6,7,7,0,0,0,0,0,0,0,0,0,0,0,0,0,0,0,0,0,0,0,0,0,0,0,0,0,0,0,0,0,0,0,0,0,0,0,0,0,0,0,0,0,0,0,0,0,0,0,0,0,0,0,0,0,0],"split_type":[0,0,0,0,0,0,0,0,0,0,0,0,0,0,0,0,0,0,0,0,0,0,0,0,0,0,0,0,0,0,0,0,0,0,0,0,0,0,0,0,0,0,0,0,0,0,0,0,0,0,0,0,0,0,0,0,0,0,0,0,0,0,0,0,0,0,0,0,0,0,0,0,0,0,0,0,0,0,0,0,0,0,0,0,0,0,0,0,0,0,0,0,0,0,0,0,0,0,0,0,0,0,0,0,0,0,0,0,0,0,0,0,0,0,0,0,0],"sum_hessian":[1.24389E5,1.08386E5,1.6003E4,1.5524E4,9.2862E4,6.784E3,9.219E3,7.26E3,8.264E3,6.6506E4,2.6356E4,3.927E3,2.857E3,5.144E3,4.075E3,5.355E3,1.905E3,2.478E3,5.786E3,6.534E4,1.166E3,2.44E3,2.3916E4,2.496E3,1.431E3,2.389E3,4.68E2,3.928E3,1.216E3,9.73E2,3.102E3,4.38E3,9.75E2,9.52E2,9.53E2,1.981E3,4.97E2,5.272E3,5.14E2,1.2652E4,5.2688E4,4.04E2,7.62E2,1.397E3,1.043E3,2.1131E4,2.785E3,8.86E2,1.61E3,1E3,4.31E2,9.9E2,1.399E3,2.35E2,2.33E2,1.989E3,1.939E3,6.28E2,5.88E2,9.11E2,6.2E1,4.95E2,2.607E3,4.83E2,3.897E3,1.497E3,4.84E2,2.894E3,2.378E3,2.428E3,1.0224E4,3.5134E4,1.7554E4,1.46E2,2.58E2,3.2E2,4.42E2,1.367E3,3E1,6.34E2,4.09E2,6.239E3,1.4892E4,2.414E3,3.71E2,3.44E2,5.42E2,5.58E2,1.052E3,4.54E2,5.46E2,2.25E2,2.06E2,4.78E2,5.12E2,6.57E2,7.42E2,1E2,1.35E2,1.16E2,1.17E2,1.203E3,7.86E2,1.621E3,3.18E2,8.8E1,5.4E2,5.25E2,6.3E1,5.2E2,3.91E2,3.9E1,2.3E1,3.53E2,1.42E2,1.341E3,1.266E3],"tree_param":{"num_deleted":"0","num_feature":"8","num_nodes":"117","size_leaf_vector":"1"}},{"base_weights":[5.392402E-2,-4.2085106E1,2.847358E2,-9.1146996E1,-3.3586967E1,5.2979443E2,1.0264008E2,-1.0460743E2,-8.0009895E1,-1.5909666E1,-5.0979427E1,3.496003E2,7.6696625E2,3.406658E1,1.4761414E2,-1.0824038E2,-9.459234E1,-7.1389786E1,-8.3275986E1,-4.139216E1,1.3329174E1,-5.7259583E1,4.2474236E1,2.780883E2,5.852432E2,1.0342437E3,5.0330237E2,1.7315123E2,1.4304773E1,1.897644E2,-5.307686E0,-1.0677277E2,-1.2262366E1,-9.182281E0,-9.7219715E0,-7.6650796E0,-7.005943E0,-8.550684E1,-7.064142E1,-3.24006E1,-8.866134E1,6.401232E1,-3.542841E0,-5.102755E1,-1.0697719E2,-4.8160168E1,6.097032E1,1.9143312E2,3.527853E2,7.4744214E2,4.3353262E2,8.092953E2,1.4975065E3,3.7315027E2,7.487296E2,8.760035E1,2.2453499E2,4.3828564E1,-4.1552437E1,3.156398E2,1.6552824E2,6.1523537E1,-7.213009E1,-1.1919783E1,-1.0537337E1,-8.090642E0,-9.099773E0,-7.294246E0,-6.802944E0,-5.0564914E0,-2.6800004E-1,-9.527126E0,-4.237283E0,1.8848234E0,1.1775634E1,-3.5309632E0,2.6353931E0,-6.343511E0,-4.8893532E-1,-1.4420638E1,-6.9581275E0,-1.0294879E1,-1.995581E0,3.1753502E0,1.1321672E1,1.3252965E1,3.0656553E1,4.1739574E1,2.4940231E1,4.538334E1,1.0760752E2,4.7160362E1,1.2479502E0,6.0525776E1,1.0068304E2,7.7037445E1,1.717912E2,5.8686176E1,1.5513536E1,-1.0164397E1,8.506257E1,-1.2172355E-1,1.7439014E1,3.701684E1,1.9544394E1,-1.2756224E0,6.6011667E0,-7.2364354E-1,-1.4132216E1,2.9423857E1,5.1773598E1,1.2237941E1,2.0901268E1,1.083725E1,-7.7887025E0,-3.6555004E0,-1.937583E1],"categories":[],"categories_nodes":[],"categories_segments":[],"categories_sizes":[],"default_left":[0,0,0,0,0,0,0,0,0,0,0,0,0,0,1,0,0,0,0,0,0,0,0,1,0,0,0,0,0,0,0,0,0,0,0,0,0,0,0,0,0,0,0,0,0,0,0,0,0,0,1,0,0,0,0,0,0,0,0,0,0,0,0,0,0,0,0,0,0,0,0,0,0,0,0,0,0,0,0,0,0,0,0,0,0,0,0,0,0,0,0,0,0,0,0,0,0,0,0,0,0,0,0,0,0,0,0,0,0,0,0,0,0,0,0,0,0],"id":8,"left_children":[1,3,5,7,9,11,13,15,17,19,21,23,25,27,29,31,33,35,37,39,41,43,45,47,49,51,53,55,57,59,61,63,-1,-1,-1,-1,-1,65,67,69,71,73,75,77,79,81,83,85,87,89,91,93,95,97,99,101,103,105,107,109,111,113,115,-1,-1,-1,-1,-1,-1,-1,-1,-1,-1,-1,-1,-1,-1,-1,-1,-1,-1,-1,-1,-1,-1,-1,-1,-1,-1,-1,-1,-1,-1,-1,-1,-1,-1,-1,-1,-1,-1,-1,-1,-1,-1,-1,-1,-1,-1,-1,-1,-1,-1,-1,-1,-1,-1],"loss_changes":[1.4937573E9,4.521936E7,7.1638605E8,2.392136E6,2.8423712E7,2.9222374E8,2.840504E7,2.5344E5,2.4088E5,3.416389E7,2.7352712E7,6.540563E7,2.0765184E8,1.0029783E7,3.5858424E7,9.902E4,5.168E3,1.1539E4,1.73E5,1.0410208E7,1.825975E7,1.35244E7,4.923117E6,1.9266976E7,2.1945536E7,1.5156032E8,4.728355E7,1.97608E6,5.274047E6,1.3252016E7,5.3768225E6,7.1368E4,0E0,0E0,0E0,0E0,0E0,1.28892E5,8.015E2,1.1113306E7,1.193812E6,1.294257E7,1.5216466E7,2.2214096E7,6.760328E6,7.674939E5,3.717948E6,9.352028E6,1.0603328E7,4.158109E7,7.528168E6,3.925184E7,7.528275E7,4.533645E7,4.471104E7,1.3260672E6,1.126619E6,2.6267748E6,3.7855875E6,2.888208E6,6.839808E6,3.940247E6,2.597731E6,0E0,0E0,0E0,0E0,0E0,0E0,0E0,0E0,0E0,0E0,0E0,0E0,0E0,0E0,0E0,0E0,0E0,0E0,0E0,0E0,0E0,0E0,0E0,0E0,0E0,0E0,0E0,0E0,0E0,0E0,0E0,0E0,0E0,0E0,0E0,0E0,0E0,0E0,0E0,0E0,0E0,0E0,0E0,0E0,0E0,0E0,0E0,0E0,0E0,0E0,0E0,0E0,0E0,0E0],"parents":[2147483647,0,0,1,1,2,2,3,3,4,4,5,5,6,6,7,7,8,8,9,9,10,10,11,11,12,12,13,13,14,14,15,15,16,16,17,17,18,18,19,19,20,20,21,21,22,22,23,23,24,24,25,25,26,26,27,27,28,28,29,29,30,30,31,31,37,37,38,38,39,39,40,40,41,41,42,42,43,43,44,44,45,45,46,46,47,47,48,48,49,49,50,50,51,51,52,52,53,53,54,54,55,55,56,56,57,57,58,58,59,59,60,60,61,61,62,62],"right_children":[2,4,6,8,10,12,14,16,18,20,22,24,26,28,30,32,34,36,38,40,42,44,46,48,50,52,54,56,58,60,62,64,-1,-1,-1,-1,-1,66,68,70,72,74,76,78,80,82,84,86,88,90,92,94,96,98,100,102,104,106,108,110,112,114,116,-1,-1,-1,-1,-1,-1,-1,-1,-1,-1,-1,-1,-1,-1,-1,-1,-1,-1,-1,-1,-1,-1,-1,-1,-1,-1,-1,-1,-1,-1,-1,-1,-1,-1,-1,-1,-1,-1,-1,-1,-1,-1,-1,-1,-1,-1,-1,-1,-1,-1,-1,-1,-1,-1],"split_conditions":[1.6292808E9,1.0352808E9,1.6729632E9,9.790272E8,1.3295844E9,1.6543764E9,1.0104E3,9.665892E8,9.946368E8,1.1922624E9,1.6103772E9,1.0239E3,1.6635852E9,1.6791372E9,3.184E2,9.63522E8,9.727704E8,9.821376E8,1.0290024E9,1.1669436E9,1.2263616E9,1.5790104E9,1.0037E3,2E-1,1.0281E3,1.6606513E9,1.6697196E9,1E-1,2E-1,1.6822584E9,1.6948008E9,9.353412E8,-1.2262366E1,-9.182281E0,-9.7219715E0,-7.6650796E0,-7.005943E0,1.0132632E9,1.0321704E9,1.1168604E9,1.189008E9,1.210932E9,1.2765455E9,1.5262524E9,1.5945948E9,9.974E2,1.6229952E9,1.0155E3,1.665E2,1.64502E9,4.858E2,1.6575156E9,1.0108E3,1.6667604E9,1.0002E3,9.999E2,2.8E1,1E-1,1.242E2,1.038E3,3E-1,6.44E2,6.042E2,-1.1919783E1,-1.0537337E1,-8.090642E0,-9.099773E0,-7.294246E0,-6.802944E0,-5.0564914E0,-2.6800004E-1,-9.527126E0,-4.237283E0,1.8848234E0,1.1775634E1,-3.5309632E0,2.6353931E0,-6.343511E0,-4.8893532E-1,-1.4420638E1,-6.9581275E0,-1.0294879E1,-1.995581E0,3.1753502E0,1.1321672E1,1.3252965E1,3.0656553E1,4.1739574E1,2.4940231E1,4.538334E1,1.0760752E2,4.7160362E1,1.2479502E0,6.0525776E1,1.0068304E2,7.7037445E1,1.717912E2,5.8686176E1,1.5513536E1,-1.0164397E1,8.506257E1,-1.2172355E-1,1.7439014E1,3.701684E1,1.9544394E1,-1.2756224E0,6.6011667E0,-7.2364354E-1,-1.4132216E1,2.9423857E1,5.1773598E1,1.2237941E1,2.0901268E1,1.083725E1,-7.7887025E0,-3.6555004E0,-1.937583E1],"split_indices":[0,0,0,0,0,0,3,0,0,0,0,3,0,0,4,0,0,0,0,0,0,0,3,4,3,0,0,4,1,0,0,0,0,0,0,0,0,0,0,0,0,0,0,0,0,3,0,3,4,0,4,0,3,0,3,3,2,4,4,3,4,4,4,0,0,0,0,0,0,0,0,0,0,0,0,0,0,0,0,0,0,0,0,0,0,0,0,0,0,0,0,0,0,0,0,0,0,0,0,0,0,0,0,0,0,0,0,0,0,0,0,0,0,0,0,0,0],"split_type":[0,0,0,0,0,0,0,0,0,0,0,0,0,0,0,0,0,0,0,0,0,0,0,0,0,0,0,0,0,0,0,0,0,0,0,0,0,0,0,0,0,0,0,0,0,0,0,0,0,0,0,0,0,0,0,0,0,0,0,0,0,0,0,0,0,0,0,0,0,0,0,0,0,0,0,0,0,0,0,0,0,0,0,0,0,0,0,0,0,0,0,0,0,0,0,0,0,0,0,0,0,0,0,0,0,0,0,0,0,0,0,0,0,0,0,0,0],"sum_hessian":[1.24517E5,1.08463E5,1.6054E4,1.6012E4,9.2451E4,6.843E3,9.211E3,7.246E3,8.766E3,4.5851E4,4.66E4,3.89E3,2.953E3,3.649E3,5.562E3,5.31E3,1.936E3,2.415E3,6.351E3,2.4499E4,2.1352E4,4.3666E4,2.934E3,2.986E3,9.04E2,1.465E3,1.488E3,4.53E2,3.196E3,4.36E3,1.202E3,4.826E3,4.84E2,9.6E2,9.76E2,4.76E2,1.939E3,5.393E3,9.58E2,2.0585E4,3.914E3,5.332E3,1.602E4,3.8804E4,4.862E3,4.97E2,2.437E3,1.384E3,1.602E3,4.35E2,4.69E2,9.88E2,4.77E2,9.74E2,5.14E2,1.71E2,2.82E2,2.091E3,1.105E3,7.02E2,3.658E3,6.01E2,6.01E2,4.8E2,4.346E3,2.943E3,2.45E3,4.95E2,4.63E2,1.2776E4,7.809E3,3.424E3,4.9E2,2.898E3,2.434E3,7.767E3,8.253E3,3.058E4,8.224E3,2.435E3,2.427E3,1.68E2,3.29E2,1.564E3,8.73E2,9.17E2,4.67E2,9.84E2,6.18E2,2.31E2,2.04E2,4.3E2,3.9E1,4.88E2,5E2,1.12E2,3.65E2,4.91E2,4.83E2,5.5E1,4.59E2,8.5E1,8.6E1,4.5E1,2.37E2,5.89E2,1.502E3,8.23E2,2.82E2,6.37E2,6.5E1,1.838E3,1.82E3,4.5E2,1.51E2,4.66E2,1.35E2],"tree_param":{"num_deleted":"0","num_feature":"8","num_nodes":"117","size_leaf_vector":"1"}},{"base_weights":[-2.5498632E-1,6.686949E1,-3.3266968E1,1.10688034E2,-1.5646685E1,-1.2205396E0,-4.0648903E1,1.6020575E2,8.185243E1,-4.558855E1,4.0779734E0,-3.8879253E1,2.4537535E1,-3.6719254E1,-8.752273E1,1.2881067E2,2.0111174E2,4.165894E1,1.1117867E2,-8.431667E1,-3.6559498E1,5.320259E1,-1.1032733E1,-6.05261E1,-2.1438667E1,-4.075056E0,5.3126343E1,-3.5690216E1,-6.2741688E1,-7.4451515E1,-1.2518046E2,6.796892E1,1.4935199E2,2.1338753E2,7.270184E0,1.6522324E1,8.467862E1,1.3488475E2,4.392461E1,-8.827939E1,-4.790133E1,-2.7005995E1,-5.0320885E1,2.6088558E1,1.5636746E2,-3.232648E1,4.9945245E0,-6.6885635E1,-1.2619173E1,7.5854983E0,-3.1516628E1,-3.328861E1,1.7092709E1,5.8222847E1,-9.675166E1,-3.6294174E1,3.5485546E1,-1.14356575E2,-5.535217E1,-6.812314E1,-1.5918694E2,-1.1669396E2,-2.1978558E2,1.1713366E1,2.048751E0,1.6760489E1,6.609304E0,1.919249E1,2.7310812E1,4.029923E0,-2.0957533E1,-4.207885E-1,4.9966774E0,-2.7312489E0,1.0987891E1,7.917952E0,1.8017687E1,-6.0304008E0,5.611934E0,-8.499341E0,-1.0247135E1,-5.987272E0,-8.303048E-1,-3.4251542E0,-1.0731877E0,-5.87483E0,-3.9837072E0,3.8256028E0,1.1012725E0,1.6014134E2,2.0840132E0,-3.7682328E-1,-4.356158E0,1.5269832E-1,1.2290907E1,-9.8648615E0,-6.147634E0,3.3848457E0,-1.0974014E1,6.514494E-1,1.2712535E1,-5.331139E0,-1.9877661E0,-6.303686E0,-1.1027558E0,3.6139352E0,-4.5373535E0,2.246439E0,7.8680596E0,-5.7293334E0,-1.9017847E1,-3.5870264E0,-9.588795E0,2.409E1,8.9310515E-1,-1.2587609E1,-4.705004E0,-3.4885252E0,-6.954571E0,-9.96745E0,-5.205019E0,-1.466895E1,-6.0777798E1,-1.5515907E1,-9.312492E0,-4.1343822E1,-1.6944689E1],"categories":[],"categories_nodes":[],"categories_segments":[],"categories_sizes":[],"default_left":[0,0,0,0,0,1,1,1,0,0,0,0,0,1,0,0,0,0,1,0,0,0,0,1,0,1,0,1,0,1,1,0,0,0,0,0,0,0,0,0,0,0,0,0,0,0,0,0,0,0,0,0,0,0,0,1,0,0,0,0,0,0,0,0,0,0,0,0,0,0,0,0,0,0,0,0,0,0,0,0,0,0,0,0,0,0,0,0,0,0,0,0,0,0,0,0,0,0,0,0,0,0,0,0,0,0,0,0,0,0,0,0,0,0,0,0,0,0,0,0,0,0,0,0,0,0,0],"id":9,"left_children":[1,3,5,7,9,11,13,15,17,19,21,23,25,27,29,31,33,35,37,39,41,43,45,47,49,51,53,55,57,59,61,63,65,67,69,71,73,75,77,79,81,83,85,87,89,91,93,95,97,99,101,103,105,107,109,111,113,115,117,119,121,123,125,-1,-1,-1,-1,-1,-1,-1,-1,-1,-1,-1,-1,-1,-1,-1,-1,-1,-1,-1,-1,-1,-1,-1,-1,-1,-1,-1,-1,-1,-1,-1,-1,-1,-1,-1,-1,-1,-1,-1,-1,-1,-1,-1,-1,-1,-1,-1,-1,-1,-1,-1,-1,-1,-1,-1,-1,-1,-1,-1,-1,-1,-1,-1,-1],"loss_changes":[2.7582787E8,1.4837715E8,1.9738896E7,3.8258176E7,8.406688E6,1.5155514E7,1.2488704E7,1.264064E7,1.9964144E7,1.973648E6,6.3710715E6,2.394531E6,7.58962E6,1.673376E6,2.57244E6,6.967304E6,1.0185344E7,7.72823E6,1.5608936E7,1.498875E5,6.0156E5,5.643499E6,2.240326E6,8.61665E5,1.0286844E6,2.8686415E6,3.550678E6,2.588952E6,9.01042E5,2.078336E6,1.058222E6,3.291455E6,6.330696E6,5.107952E6,1.8419689E6,3.1291205E6,7.442338E6,1.8254824E7,3.2496195E6,3.61525E4,5.022583E4,3.1906388E5,1.635835E5,2.9307412E5,8.222078E7,9.04325E5,1.5314526E6,4.23302E5,1.5065372E6,1.1529303E5,6.6101525E5,1.289986E6,3.202127E6,3.282103E6,5.531334E5,1.50448E6,2.7633695E6,2.2435325E5,6.02682E5,1.83415E6,1.42453E6,1.110624E6,1.002249E6,0E0,0E0,0E0,0E0,0E0,0E0,0E0,0E0,0E0,0E0,0E0,0E0,0E0,0E0,0E0,0E0,0E0,0E0,0E0,0E0,0E0,0E0,0E0,0E0,0E0,0E0,0E0,0E0,0E0,0E0,0E0,0E0,0E0,0E0,0E0,0E0,0E0,0E0,0E0,0E0,0E0,0E0,0E0,0E0,0E0,0E0,0E0,0E0,0E0,0E0,0E0,0E0,0E0,0E0,0E0,0E0,0E0,0E0,0E0,0E0,0E0,0E0,0E0,0E0],"parents":[2147483647,0,0,1,1,2,2,3,3,4,4,5,5,6,6,7,7,8,8,9,9,10,10,11,11,12,12,13,13,14,14,15,15,16,16,17,17,18,18,19,19,20,20,21,21,22,22,23,23,24,24,25,25,26,26,27,27,28,28,29,29,30,30,31,31,32,32,33,33,34,34,35,35,36,36,37,37,38,38,39,39,40,40,41,41,42,42,43,43,44,44,45,45,46,46,47,47,48,48,49,49,50,50,51,51,52,52,53,53,54,54,55,55,56,56,57,57,58,58,59,59,60,60,61,61,62,62],"right_children":[2,4,6,8,10,12,14,16,18,20,22,24,26,28,30,32,34,36,38,40,42,44,46,48,50,52,54,56,58,60,62,64,66,68,70,72,74,76,78,80,82,84,86,88,90,92,94,96,98,100,102,104,106,108,110,112,114,116,118,120,122,124,126,-1,-1,-1,-1,-1,-1,-1,-1,-1,-1,-1,-1,-1,-1,-1,-1,-1,-1,-1,-1,-1,-1,-1,-1,-1,-1,-1,-1,-1,-1,-1,-1,-1,-1,-1,-1,-1,-1,-1,-1,-1,-1,-1,-1,-1,-1,-1,-1,-1,-1,-1,-1,-1,-1,-1,-1,-1,-1,-1,-1,-1,-1,-1,-1],"split_conditions":[5E0,2E2,6.8E0,2.9E0,7.336E2,6E0,8.1E0,5E-1,4E-1,2E-1,7.85E1,8.722E2,1.0125E3,8.67E1,1E1,1.0119E3,5.476E2,1.0175E3,3.651E2,9.73E1,3.7E0,1.0237E3,1.0133E3,1E0,7.56E1,3E-1,6.753E2,7.7E1,7.9E1,4.858E2,3.184E2,9.39E1,2E-1,1.023E3,1.0278E3,7.9E1,1.4E1,1.013E3,4.68E1,4.4E0,1.0231E3,1.0214E3,1.016E3,3.9E0,1.0241E3,8.9E1,1.038E3,2E-1,5.804E2,1.038E3,1.0078E3,7.6E1,2.993E2,5E-1,1.022E3,5.016E2,1E-1,6.55E1,7.3E0,3E-1,4E-1,3E-1,9.993E2,1.1713366E1,2.048751E0,1.6760489E1,6.609304E0,1.919249E1,2.7310812E1,4.029923E0,-2.0957533E1,-4.207885E-1,4.9966774E0,-2.7312489E0,1.0987891E1,7.917952E0,1.8017687E1,-6.0304008E0,5.611934E0,-8.499341E0,-1.0247135E1,-5.987272E0,-8.303048E-1,-3.4251542E0,-1.0731877E0,-5.87483E0,-3.9837072E0,3.8256028E0,1.1012725E0,1.6014134E2,2.0840132E0,-3.7682328E-1,-4.356158E0,1.5269832E-1,1.2290907E1,-9.8648615E0,-6.147634E0,3.3848457E0,-1.0974014E1,6.514494E-1,1.2712535E1,-5.331139E0,-1.9877661E0,-6.303686E0,-1.1027558E0,3.6139352E0,-4.5373535E0,2.246439E0,7.8680596E0,-5.7293334E0,-1.9017847E1,-3.5870264E0,-9.588795E0,2.409E1,8.9310515E-1,-1.2587609E1,-4.705004E0,-3.4885252E0,-6.954571E0,-9.96745E0,-5.205019E0,-1.466895E1,-6.0777798E1,-1.5515907E1,-9.312492E0,-4.1343822E1,-1.6944689E1],"split_indices":[7,2,7,7,4,2,7,4,4,4,5,4,3,5,7,3,4,3,4,5,7,3,3,2,5,4,4,2,2,4,4,5,4,3,3,2,2,3,5,7,3,3,3,7,3,5,3,4,4,3,3,2,4,4,3,4,4,4,7,4,1,4,3,0,0,0,0,0,0,0,0,0,0,0,0,0,0,0,0,0,0,0,0,0,0,0,0,0,0,0,0,0,0,0,0,0,0,0,0,0,0,0,0,0,0,0,0,0,0,0,0,0,0,0,0,0,0,0,0,0,0,0,0,0,0,0,0],"split_type":[0,0,0,0,0,0,0,0,0,0,0,0,0,0,0,0,0,0,0,0,0,0,0,0,0,0,0,0,0,0,0,0,0,0,0,0,0,0,0,0,0,0,0,0,0,0,0,0,0,0,0,0,0,0,0,0,0,0,0,0,0,0,0,0,0,0,0,0,0,0,0,0,0,0,0,0,0,0,0,0,0,0,0,0,0,0,0,0,0,0,0,0,0,0,0,0,0,0,0,0,0,0,0,0,0,0,0,0,0,0,0,0,0,0,0,0,0,0,0,0,0,0,0,0,0,0,0],"sum_hessian":[1.24474E5,4.1035E4,8.3439E4,2.6802E4,1.4233E4,1.5622E4,6.7817E4,9.862E3,1.694E4,5.652E3,8.581E3,6.345E3,9.277E3,6.2573E4,5.244E3,5.582E3,4.28E3,7.147E3,9.793E3,1.067E3,4.585E3,2.018E3,6.563E3,2.83E3,3.515E3,4.637E3,4.64E3,6.0195E4,2.378E3,3.895E3,1.349E3,1.41E3,4.172E3,4.025E3,2.55E2,4.512E3,2.635E3,7.24E3,2.553E3,9.61E2,1.06E2,2.708E3,1.877E3,1.599E3,4.19E2,2.818E3,3.745E3,2.498E3,3.32E2,9.06E2,2.609E3,1.948E3,2.689E3,4.488E3,1.52E2,5.9689E4,5.06E2,2.96E2,2.082E3,3.626E3,2.69E2,1.24E3,1.09E2,6.92E2,7.18E2,3.421E3,7.51E2,2.964E3,1.061E3,2.22E2,3.3E1,2.786E3,1.726E3,4.84E2,2.151E3,3.248E3,3.992E3,2.67E2,2.286E3,7.86E2,1.75E2,8.1E1,2.5E1,1.873E3,8.35E2,1.038E3,8.39E2,8.84E2,7.15E2,3.5E1,3.84E2,7.96E2,2.022E3,3.639E3,1.06E2,3.61E2,2.137E3,2.25E2,1.07E2,8.99E2,7E0,9.07E2,1.702E3,8.33E2,1.115E3,2.061E3,6.28E2,1.634E3,2.854E3,1.08E2,4.4E1,5.9269E4,4.2E2,5.7E1,4.49E2,2.52E2,4.4E1,8.54E2,1.228E3,1.222E3,2.404E3,2.63E2,6E0,4.69E2,7.71E2,2.1E1,8.8E1],"tree_param":{"num_deleted":"0","num_feature":"8","num_nodes":"127","size_leaf_vector":"1"}},{"base_weights":[1.9772223E-1,-3.6603462E1,2.4918015E2,-7.9642204E1,-2.9715303E1,4.6530862E2,8.777545E1,-9.070047E1,-6.907664E1,-1.5892206E1,-5.4427425E1,7.0017535E2,2.974638E2,1.6838042E2,3.2000427E1,-9.3924286E1,-8.183682E0,-6.5245995E1,-7.745282E1,-3.4291206E1,-2.3903072E0,-6.277017E1,3.3148552E1,5.1540314E2,1.0021311E3,1.4624702E2,4.2291437E2,3.1719034E2,1.53065E2,1.084046E2,-9.326412E0,-9.290785E1,-1.0383207E1,-6.1625275E1,-6.826112E1,-8.0136665E1,-7.337165E1,-2.589957E1,-7.370533E1,5.4527058E1,-1.4065123E1,-8.901591E1,-5.0545807E1,-6.4988174E1,4.7265083E1,1.798126E2,5.7429614E2,1.15348E3,3.8644315E2,2.7327933E2,8.58136E1,5.7559406E2,1.9875954E2,3.990148E2,2.5913193E2,1.6870482E2,3.3577362E1,1.3555704E2,-2.9634109E0,-1.6886017E2,6.08318E0,-1.0298427E1,-9.170253E0,-6.70357E0,-5.8054137E0,-8.051088E0,-6.5736017E0,-7.3741813E0,-9.297327E0,-6.3950953E0,-8.285591E0,-4.014113E0,1.0688493E0,-7.8465066E0,-3.5689843E0,1.7707251E0,9.221502E0,-4.3257146E0,-7.4201983E-1,-5.028795E0,-1.0599924E1,-3.4983242E0,-1.01914625E1,-5.8679074E-1,-1.0722899E1,2.173887E0,9.175456E0,3.1665442E1,1.1710781E1,4.9174927E1,7.493508E1,1.3891014E2,9.3355156E1,8.715124E1,2.7400446E1,1.2888799E1,3.674026E1,1.3286531E1,8.387901E-1,3.6309673E1,9.1291405E1,1.0697914E1,5.581483E1,5.155549E1,3.4875114E1,2.0545218E1,2.978781E1,1.29595785E1,2.1794947E1,6.554095E0,-1.1838888E1,5.571183E0,1.8506296E1,2.8263133E0,-1.18074255E1,4.0638566E0,-1.9653387E1,2.6375139E0,-1.3333948E1],"categories":[],"categories_nodes":[],"categories_segments":[],"categories_sizes":[],"default_left":[0,0,0,0,0,0,1,0,0,0,0,0,0,0,0,0,0,0,0,0,0,0,0,0,0,0,0,0,1,1,0,0,0,0,0,0,0,0,0,0,0,0,0,0,0,0,0,0,0,0,0,0,0,0,0,1,0,0,0,0,0,0,0,0,0,0,0,0,0,0,0,0,0,0,0,0,0,0,0,0,0,0,0,0,0,0,0,0,0,0,0,0,0,0,0,0,0,0,0,0,0,0,0,0,0,0,0,0,0,0,0,0,0,0,0,0,0,0,0],"id":10,"left_children":[1,3,5,7,9,11,13,15,17,19,21,23,25,27,29,31,-1,33,35,37,39,41,43,45,47,49,51,53,55,57,59,61,-1,63,65,67,69,71,73,75,77,79,81,83,85,87,89,91,93,95,97,99,101,103,105,107,109,111,113,115,117,-1,-1,-1,-1,-1,-1,-1,-1,-1,-1,-1,-1,-1,-1,-1,-1,-1,-1,-1,-1,-1,-1,-1,-1,-1,-1,-1,-1,-1,-1,-1,-1,-1,-1,-1,-1,-1,-1,-1,-1,-1,-1,-1,-1,-1,-1,-1,-1,-1,-1,-1,-1,-1,-1,-1,-1,-1,-1],"loss_changes":[1.13962E9,3.2121216E7,5.586637E8,1.740328E6,3.1907808E7,2.697084E8,4.122059E7,2.00936E5,2.40372E5,1.4881357E7,2.4483088E7,1.5866112E8,7.572426E7,8.498016E6,1.7118054E7,4.42E4,0E0,5.3162E4,2.0353E4,8.383898E6,2.2959894E7,9.810888E6,4.041367E6,3.491837E7,1.0037901E8,1.3894948E7,7.459635E7,1.55456E6,6.351864E6,5.754908E6,8.651961E6,4.9572E4,0E0,4.2441E4,8.3112E4,1.10859E5,8.06545E4,1.0893417E7,8.024E5,8.159216E6,5.561245E6,6.3878E6,1.668374E7,9.158754E5,2.8927725E6,2.245368E6,2.1408E7,4.3682816E7,1.148742E7,7.889548E6,4.479789E6,9.270861E7,2.9164864E7,6.57856E5,3.69336E5,5.764896E6,1.9264268E6,6.037488E6,1.3476852E6,1.805243E6,9.085117E6,0E0,0E0,0E0,0E0,0E0,0E0,0E0,0E0,0E0,0E0,0E0,0E0,0E0,0E0,0E0,0E0,0E0,0E0,0E0,0E0,0E0,0E0,0E0,0E0,0E0,0E0,0E0,0E0,0E0,0E0,0E0,0E0,0E0,0E0,0E0,0E0,0E0,0E0,0E0,0E0,0E0,0E0,0E0,0E0,0E0,0E0,0E0,0E0,0E0,0E0,0E0,0E0,0E0,0E0,0E0,0E0,0E0,0E0],"parents":[2147483647,0,0,1,1,2,2,3,3,4,4,5,5,6,6,7,7,8,8,9,9,10,10,11,11,12,12,13,13,14,14,15,15,17,17,18,18,19,19,20,20,21,21,22,22,23,23,24,24,25,25,26,26,27,27,28,28,29,29,30,30,31,31,33,33,34,34,35,35,36,36,37,37,38,38,39,39,40,40,41,41,42,42,43,43,44,44,45,45,46,46,47,47,48,48,49,49,50,50,51,51,52,52,53,53,54,54,55,55,56,56,57,57,58,58,59,59,60,60],"right_children":[2,4,6,8,10,12,14,16,18,20,22,24,26,28,30,32,-1,34,36,38,40,42,44,46,48,50,52,54,56,58,60,62,-1,64,66,68,70,72,74,76,78,80,82,84,86,88,90,92,94,96,98,100,102,104,106,108,110,112,114,116,118,-1,-1,-1,-1,-1,-1,-1,-1,-1,-1,-1,-1,-1,-1,-1,-1,-1,-1,-1,-1,-1,-1,-1,-1,-1,-1,-1,-1,-1,-1,-1,-1,-1,-1,-1,-1,-1,-1,-1,-1,-1,-1,-1,-1,-1,-1,-1,-1,-1,-1,-1,-1,-1,-1,-1,-1,-1,-1],"split_conditions":[1.6292808E9,1.0290024E9,1.6729632E9,9.790272E8,1.4138496E9,3.8E0,3.8E0,9.665892E8,1.0132632E9,1.1922624E9,1.6103772E9,1.6575156E9,1.6481448E9,1.6791372E9,1.6948008E9,9.63522E8,-8.183682E0,9.946368E8,1.0227816E9,1.1638513E9,1.2294828E9,1.4763456E9,1.0022E3,1.6326108E9,9.54E1,5E0,1.6635852E9,1.6760448E9,3.184E2,4.207E2,1.6979292E9,9.353412E8,-1.0383207E1,9.851112E8,9.977256E8,1.019664E9,1.0259856E9,1.1262852E9,1.189008E9,1.210932E9,1.2640392E9,1.4326129E9,1.5790104E9,1.6134624E9,1.6229952E9,1.0181E3,1.0239E3,1.6635852E9,1.6635852E9,1.6356924E9,7.2E0,1.6575156E9,1.0203E3,2.2E0,1.0128E3,2E-1,1.0251E3,1.0066E3,5.3E1,4.4E0,3.987E2,-1.0298427E1,-9.170253E0,-6.70357E0,-5.8054137E0,-8.051088E0,-6.5736017E0,-7.3741813E0,-9.297327E0,-6.3950953E0,-8.285591E0,-4.014113E0,1.0688493E0,-7.8465066E0,-3.5689843E0,1.7707251E0,9.221502E0,-4.3257146E0,-7.4201983E-1,-5.028795E0,-1.0599924E1,-3.4983242E0,-1.01914625E1,-5.8679074E-1,-1.0722899E1,2.173887E0,9.175456E0,3.1665442E1,1.1710781E1,4.9174927E1,7.493508E1,1.3891014E2,9.3355156E1,8.715124E1,2.7400446E1,1.2888799E1,3.674026E1,1.3286531E1,8.387901E-1,3.6309673E1,9.1291405E1,1.0697914E1,5.581483E1,5.155549E1,3.4875114E1,2.0545218E1,2.978781E1,1.29595785E1,2.1794947E1,6.554095E0,-1.1838888E1,5.571183E0,1.8506296E1,2.8263133E0,-1.18074255E1,4.0638566E0,-1.9653387E1,2.6375139E0,-1.3333948E1],"split_indices":[0,0,0,0,0,7,7,0,0,0,0,0,0,0,0,0,0,0,0,0,0,0,3,0,5,7,0,0,4,4,0,0,0,0,0,0,0,0,0,0,0,0,0,0,0,3,3,0,0,0,7,0,3,7,3,4,3,3,2,7,4,0,0,0,0,0,0,0,0,0,0,0,0,0,0,0,0,0,0,0,0,0,0,0,0,0,0,0,0,0,0,0,0,0,0,0,0,0,0,0,0,0,0,0,0,0,0,0,0,0,0,0,0,0,0,0,0,0,0],"split_type":[0,0,0,0,0,0,0,0,0,0,0,0,0,0,0,0,0,0,0,0,0,0,0,0,0,0,0,0,0,0,0,0,0,0,0,0,0,0,0,0,0,0,0,0,0,0,0,0,0,0,0,0,0,0,0,0,0,0,0,0,0,0,0,0,0,0,0,0,0,0,0,0,0,0,0,0,0,0,0,0,0,0,0,0,0,0,0,0,0,0,0,0,0,0,0,0,0,0,0,0,0,0,0,0,0,0,0,0,0,0,0,0,0,0,0,0,0,0,0],"sum_hessian":[1.24372E5,1.08357E5,1.6015E4,1.4948E4,9.3409E4,6.846E3,9.169E3,7.3E3,7.648E3,5.9903E4,3.3506E4,2.852E3,3.994E3,3.749E3,5.42E3,5.346E3,1.954E3,5.254E3,2.394E3,2.5353E4,3.455E4,3.0592E4,2.914E3,1.771E3,1.081E3,1.812E3,2.182E3,3.48E2,3.401E3,1.902E3,3.518E3,4.858E3,4.88E2,2.397E3,2.857E3,1.433E3,9.61E2,2.0904E4,4.449E3,5.88E3,2.867E4,9.719E3,2.0873E4,3.66E2,2.548E3,2.65E2,1.506E3,8.67E2,2.14E2,5.83E2,1.229E3,1.297E3,8.85E2,1.42E2,2.06E2,3.007E3,3.94E2,1.529E3,3.73E2,3.09E2,3.209E3,5.1E2,4.348E3,9.46E2,1.451E3,4.83E2,2.374E3,9.61E2,4.72E2,4.86E2,4.75E2,1.5047E4,5.857E3,3.953E3,4.96E2,2.975E3,2.905E3,5.315E3,2.3355E4,2.964E3,6.755E3,1.6021E4,4.852E3,1.53E2,2.13E2,1.62E3,9.28E2,8.2E1,1.83E2,1.026E3,4.8E2,4.16E2,4.51E2,3.9E1,1.75E2,2.31E2,3.52E2,7.64E2,4.65E2,7.97E2,5E2,7.06E2,1.79E2,4E1,1.02E2,8.9E1,1.17E2,1.678E3,1.329E3,3.26E2,6.8E1,5.86E2,9.43E2,2.94E2,7.9E1,3.6E1,2.73E2,2.802E3,4.07E2],"tree_param":{"num_deleted":"0","num_feature":"8","num_nodes":"119","size_leaf_vector":"1"}},{"base_weights":[-1.3154997E-1,-3.3011196E1,2.2073648E2,-7.056703E1,-2.6498281E1,4.1719748E2,7.492312E1,-8.1455795E1,-6.146685E1,-1.3380769E1,-4.962509E1,6.474421E2,2.763254E2,1.4840349E2,2.3058346E1,-8.402891E1,-7.426329E1,-5.786539E1,-6.598799E1,-3.0329699E1,-1.4087389E0,-5.7855576E1,2.2808548E1,4.7190417E2,9.1437396E2,3.7107614E2,9.5554634E1,1.5957146E2,-2.5291538E1,1.0636901E2,-7.23843E0,-8.192904E1,-9.371E0,-7.0607543E0,-7.5444713E0,-5.929957E1,-4.532747E0,-6.939263E1,-5.596324E0,-2.2174248E1,-6.727604E1,5.4627014E1,-1.1613947E1,-5.06492E1,-1.0029674E2,2.0380578E0,7.557471E1,1.6649289E2,5.289423E2,1.2120331E3,6.388059E2,2.0106146E2,4.9506766E2,1.8468651E2,5.9269147E0,1.4618091E2,2.7875778E2,5.073023E1,-1.11542984E2,1.302744E2,-3.495165E1,2.270992E1,-8.025231E1,-9.323708E0,-8.050004E0,-5.73501E0,-7.422306E0,-6.7627106E0,-7.849099E0,-3.8075635E0,5.642543E-1,-7.0929465E0,-3.8215687E0,1.8630733E0,9.857622E0,-5.4626427E0,-6.5770435E-1,-7.1284814E0,-6.2846607E-1,-1.2424357E1,-7.002151E0,2.4842622E0,-3.4626465E0,-1.2788579E1,8.226108E0,2.9255423E1,1.16544075E1,4.1534065E1,6.400515E1,1.4373198E2,9.6863E1,7.676791E1,3.0343113E1,1.2001616E1,2.9336182E1,2.957399E1,6.0117065E1,-6.7529213E-1,2.3296555E1,8.156096E0,-1.038761E1,1.8602522E1,1.0481532E1,2.3066248E1,4.6282246E1,1.1109889E1,-2.9582837E0,-6.768375E0,-2.9211103E1,1.5324763E1,1.8478127E0,-7.796148E1,-2.0393174E0,3.198552E0,-1.3073776E1,-5.3317113E0,-1.5701947E1],"categories":[],"categories_nodes":[],"categories_segments":[],"categories_sizes":[],"default_left":[0,0,0,0,0,0,1,0,0,0,0,0,0,1,0,0,0,0,0,0,0,0,0,0,0,0,0,1,0,0,0,0,0,0,0,0,0,0,0,0,0,0,0,0,0,0,0,0,1,0,0,1,0,0,0,0,0,0,0,0,0,0,0,0,0,0,0,0,0,0,0,0,0,0,0,0,0,0,0,0,0,0,0,0,0,0,0,0,0,0,0,0,0,0,0,0,0,0,0,0,0,0,0,0,0,0,0,0,0,0,0,0,0,0,0,0,0],"id":11,"left_children":[1,3,5,7,9,11,13,15,17,19,21,23,25,27,29,31,33,35,37,39,41,43,45,47,49,51,53,55,57,59,61,63,-1,-1,-1,65,-1,67,-1,69,71,73,75,77,79,81,83,85,87,89,91,93,95,97,99,101,103,105,107,109,111,113,115,-1,-1,-1,-1,-1,-1,-1,-1,-1,-1,-1,-1,-1,-1,-1,-1,-1,-1,-1,-1,-1,-1,-1,-1,-1,-1,-1,-1,-1,-1,-1,-1,-1,-1,-1,-1,-1,-1,-1,-1,-1,-1,-1,-1,-1,-1,-1,-1,-1,-1,-1,-1,-1,-1],"loss_changes":[9.027688E8,2.6464856E7,4.6140883E8,1.579536E6,2.7974256E7,2.2239027E8,3.5237296E7,1.28436E5,1.38084E5,1.193977E7,1.9897696E7,1.2158323E8,7.291341E7,7.425784E6,1.3686138E7,1.01124E5,2.991E3,8.4686E4,1.27758E5,7.337916E6,1.9721106E7,9.16084E6,3.73275E6,2.7313728E7,8.387578E7,5.879901E7,1.171032E7,5.69676E6,1.5268798E6,4.889613E6,8.698112E6,6.3692E4,0E0,0E0,0E0,1.22501E5,0E0,4.0873E4,0E0,8.826821E6,4.6486E5,8.403371E6,6.319963E6,2.34553E7,3.144312E6,2.0451699E6,1.3192375E6,1.533762E6,1.645856E7,2.575136E7,2.3019856E7,8.791792E6,3.3978304E7,6.794816E6,6.08762E6,5.310728E6,3.097902E6,6.0448725E5,8.4346275E5,3.174182E6,2.2607448E6,4.019365E6,2.3840025E6,0E0,0E0,0E0,0E0,0E0,0E0,0E0,0E0,0E0,0E0,0E0,0E0,0E0,0E0,0E0,0E0,0E0,0E0,0E0,0E0,0E0,0E0,0E0,0E0,0E0,0E0,0E0,0E0,0E0,0E0,0E0,0E0,0E0,0E0,0E0,0E0,0E0,0E0,0E0,0E0,0E0,0E0,0E0,0E0,0E0,0E0,0E0,0E0,0E0,0E0,0E0,0E0,0E0,0E0],"parents":[2147483647,0,0,1,1,2,2,3,3,4,4,5,5,6,6,7,7,8,8,9,9,10,10,11,11,12,12,13,13,14,14,15,15,16,16,17,17,18,18,19,19,20,20,21,21,22,22,23,23,24,24,25,25,26,26,27,27,28,28,29,29,30,30,31,31,35,35,37,37,39,39,40,40,41,41,42,42,43,43,44,44,45,45,46,46,47,47,48,48,49,49,50,50,51,51,52,52,53,53,54,54,55,55,56,56,57,57,58,58,59,59,60,60,61,61,62,62],"right_children":[2,4,6,8,10,12,14,16,18,20,22,24,26,28,30,32,34,36,38,40,42,44,46,48,50,52,54,56,58,60,62,64,-1,-1,-1,66,-1,68,-1,70,72,74,76,78,80,82,84,86,88,90,92,94,96,98,100,102,104,106,108,110,112,114,116,-1,-1,-1,-1,-1,-1,-1,-1,-1,-1,-1,-1,-1,-1,-1,-1,-1,-1,-1,-1,-1,-1,-1,-1,-1,-1,-1,-1,-1,-1,-1,-1,-1,-1,-1,-1,-1,-1,-1,-1,-1,-1,-1,-1,-1,-1,-1,-1,-1,-1,-1,-1,-1,-1],"split_conditions":[1.6292808E9,1.0352808E9,1.6729632E9,9.790272E8,1.4138496E9,3.6E0,3.8E0,9.665892E8,1.0101852E9,1.1922624E9,1.6072056E9,1.6575156E9,6.2E0,4.601E2,1.6885297E9,9.604224E8,9.697464E8,1.0070532E9,1.0290024E9,1.1638513E9,1.2263616E9,1.5790104E9,1.6229952E9,1.6326108E9,9.05E1,1.6481448E9,7.4E0,1.0296E3,1.7133876E9,4.772E2,6.7E0,9.353412E8,-9.371E0,-7.0607543E0,-7.5444713E0,1.0038888E9,-4.532747E0,1.0259856E9,-5.596324E0,1.1168604E9,1.189008E9,1.210932E9,1.0045E3,1.5262524E9,1.5945948E9,4.7E0,1.0017E3,1.0175E3,3E-1,2.8E0,9.65E1,2E-1,1.0124E3,1.638756E9,8.68E1,1.7042255E9,1.7290008E9,1.0224E3,1.023E3,7.9E0,9.986E2,7E-1,2.211E2,-9.323708E0,-8.050004E0,-5.73501E0,-7.422306E0,-6.7627106E0,-7.849099E0,-3.8075635E0,5.642543E-1,-7.0929465E0,-3.8215687E0,1.8630733E0,9.857622E0,-5.4626427E0,-6.5770435E-1,-7.1284814E0,-6.2846607E-1,-1.2424357E1,-7.002151E0,2.4842622E0,-3.4626465E0,-1.2788579E1,8.226108E0,2.9255423E1,1.16544075E1,4.1534065E1,6.400515E1,1.4373198E2,9.6863E1,7.676791E1,3.0343113E1,1.2001616E1,2.9336182E1,2.957399E1,6.0117065E1,-6.7529213E-1,2.3296555E1,8.156096E0,-1.038761E1,1.8602522E1,1.0481532E1,2.3066248E1,4.6282246E1,1.1109889E1,-2.9582837E0,-6.768375E0,-2.9211103E1,1.5324763E1,1.8478127E0,-7.796148E1,-2.0393174E0,3.198552E0,-1.3073776E1,-5.3317113E0,-1.5701947E1],"split_indices":[0,0,0,0,0,7,7,0,0,0,0,0,7,4,0,0,0,0,0,0,0,0,0,0,5,0,7,3,0,4,7,0,0,0,0,0,0,0,0,0,0,0,3,0,0,7,3,3,4,7,5,4,3,0,5,0,0,3,3,7,3,1,4,0,0,0,0,0,0,0,0,0,0,0,0,0,0,0,0,0,0,0,0,0,0,0,0,0,0,0,0,0,0,0,0,0,0,0,0,0,0,0,0,0,0,0,0,0,0,0,0,0,0,0,0,0,0],"split_type":[0,0,0,0,0,0,0,0,0,0,0,0,0,0,0,0,0,0,0,0,0,0,0,0,0,0,0,0,0,0,0,0,0,0,0,0,0,0,0,0,0,0,0,0,0,0,0,0,0,0,0,0,0,0,0,0,0,0,0,0,0,0,0,0,0,0,0,0,0,0,0,0,0,0,0,0,0,0,0,0,0,0,0,0,0,0,0,0,0,0,0,0,0,0,0,0,0,0,0,0,0,0,0,0,0,0,0,0,0,0,0,0,0,0,0,0,0],"sum_hessian":[1.24311E5,1.08204E5,1.6107E4,1.599E4,9.2214E4,6.861E3,9.246E3,7.276E3,8.714E3,5.8841E4,3.3373E4,2.603E3,4.258E3,3.825E3,5.421E3,5.351E3,1.925E3,4.858E3,3.856E3,2.4357E4,3.4484E4,2.9968E4,3.405E3,1.572E3,1.031E3,2.793E3,1.465E3,3.594E3,2.31E2,1.445E3,3.976E3,4.405E3,9.46E2,4.85E2,1.44E3,4.356E3,5.02E2,2.874E3,9.82E2,1.9954E4,4.403E3,5.312E3,2.9172E4,2.562E4,4.348E3,2.444E3,9.61E2,2.48E2,1.324E3,4.94E2,5.37E2,1.179E3,1.614E3,7.34E2,7.31E2,3.233E3,3.61E2,1.23E2,1.08E2,1.236E3,2.09E2,2.82E3,1.156E3,4.87E2,3.918E3,3.857E3,4.99E2,2.414E3,4.6E2,1.2696E4,7.258E3,3.91E3,4.93E2,2.921E3,2.391E3,3.057E3,2.6115E4,1.7486E4,8.134E3,2.426E3,1.922E3,1.507E3,9.37E2,3E1,9.31E2,6.9E1,1.79E2,6.57E2,6.67E2,2.54E2,2.4E2,3.87E2,1.5E2,6.29E2,5.5E2,5.62E2,1.052E3,1.48E2,5.86E2,4.33E2,2.98E2,1.645E3,1.588E3,2.88E2,7.3E1,7E1,5.3E1,8.8E1,2E1,1.025E3,2.11E2,3E0,2.06E2,2.66E3,1.6E2,8.57E2,2.99E2],"tree_param":{"num_deleted":"0","num_feature":"8","num_nodes":"117","size_leaf_vector":"1"}},{"base_weights":[1.4399227E-1,5.1915337E1,-2.4132063E1,8.560311E1,-1.1252693E1,2.036117E0,-2.9978645E1,1.1787542E2,5.6702404E1,-4.3070637E1,-2.0256567E0,-2.9549957E1,2.181283E1,-2.7639618E1,-8.470893E1,8.918638E1,1.5209229E2,1.9344522E1,8.448046E1,-2.1932734E1,-5.8699E1,-2.273508E1,1.0156296E1,-5.6765667E1,-1.8604307E1,8.25029E1,1.1316723E1,-6.2201946E1,-2.6049341E1,-7.7169556E1,-1.5595087E2,8.022294E1,1.9939641E2,1.727083E2,5.5197544E1,1.7287007E2,1.3587286E1,2.4444904E2,7.727436E1,-3.332243E1,-1.0142554E1,-7.8494446E1,-4.6680317E1,-3.8258817E0,-3.0864862E1,7.4786377E0,1.2049601E2,-3.9596577E1,-7.473037E1,-3.80823E1,-9.397689E0,5.1604057E1,1.319027E2,7.702366E0,2.204746E2,-2.4227938E1,-8.3581085E1,-2.5494524E1,-8.0665405E1,-1.0173288E2,-6.2404972E1,-1.7524393E2,-9.211066E1,5.906927E0,1.321556E1,2.708191E1,1.1869426E1,1.5902644E1,3.0260397E1,8.043689E0,-8.644548E0,2.3506134E1,-3.4639797E-1,-2.2217844E0,3.7042916E0,3.329624E1,4.4862623E0,2.5964613E0,1.0174425E1,-2.4992325E0,-4.3721075E0,-3.0067015E0,-2.2447598E-1,-5.465818E0,-9.03174E0,-3.8732488E0,-6.0304856E0,-3.499548E0,8.191829E-1,-1.7418724E0,-4.7883162E0,3.4173105E-2,2.6571164E0,1.3572568E1,-2.5053859E0,7.042262E-1,-4.3091693E0,-9.835401E0,-6.632802E0,-2.4338193E0,-5.257631E0,1.6756535E0,-1.5643796E0,3.5964093E0,1.5550611E1,1.2345467E1,6.782646E1,-2.5612772E0,2.5428503E0,6.9883704E0,8.095858E1,-5.6386847E0,3.8685364E-1,-3.7219434E0,-9.5883465E0,2.1798049E-1,-2.6864412E0,-5.427759E0,-1.1539592E1,-1.9871016E1,-9.188598E0,-5.4001737E0,-1.033307E1,-2.9876211E1,-1.5818044E1,-1.004965E1,-5.0836797E0],"categories":[],"categories_nodes":[],"categories_segments":[],"categories_sizes":[],"default_left":[0,0,0,0,0,1,1,0,0,0,0,0,0,0,1,0,0,0,0,0,0,0,0,0,0,0,0,0,1,0,0,0,0,0,0,0,0,0,0,0,0,0,0,0,0,0,1,0,0,0,0,0,0,1,0,1,0,0,0,0,0,0,0,0,0,0,0,0,0,0,0,0,0,0,0,0,0,0,0,0,0,0,0,0,0,0,0,0,0,0,0,0,0,0,0,0,0,0,0,0,0,0,0,0,0,0,0,0,0,0,0,0,0,0,0,0,0,0,0,0,0,0,0,0,0,0,0],"id":12,"left_children":[1,3,5,7,9,11,13,15,17,19,21,23,25,27,29,31,33,35,37,39,41,43,45,47,49,51,53,55,57,59,61,63,65,67,69,71,73,75,77,79,81,83,85,87,89,91,93,95,97,99,101,103,105,107,109,111,113,115,117,119,121,123,125,-1,-1,-1,-1,-1,-1,-1,-1,-1,-1,-1,-1,-1,-1,-1,-1,-1,-1,-1,-1,-1,-1,-1,-1,-1,-1,-1,-1,-1,-1,-1,-1,-1,-1,-1,-1,-1,-1,-1,-1,-1,-1,-1,-1,-1,-1,-1,-1,-1,-1,-1,-1,-1,-1,-1,-1,-1,-1,-1,-1,-1,-1,-1,-1],"loss_changes":[1.566405E8,8.466519E7,1.2981332E7,2.4194816E7,4.0628402E6,9.680511E6,8.875928E6,1.2019488E7,1.4205916E7,1.026434E6,2.706956E6,1.776475E6,6.0697655E6,3.654116E6,1.51446E6,6.573036E6,1.1154944E7,5.1595265E6,9.032504E6,1.7745738E5,4.217285E5,6.107955E5,1.9951728E6,5.24778E5,7.6303475E5,2.13778E6,6.1413245E6,2.372641E6,1.924784E6,9.26431E5,3.176415E5,6.770344E6,2.855602E6,8.14128E6,3.517581E6,2.314733E6,4.729076E6,5.95619E6,9.432764E6,5.720375E4,1.0253078E5,1.8500675E5,1.1840225E5,4.4829297E5,6.3508575E5,8.989086E5,3.5806875E5,1.4326138E5,1.59219E5,2.7083762E5,4.7270525E5,1.4016782E6,2.408732E6,4.718545E6,1.2186062E7,9.5346556E5,1.063572E6,2.38654E6,5.7935575E5,9.02291E5,5.477685E5,3.890255E5,1.7388625E4,0E0,0E0,0E0,0E0,0E0,0E0,0E0,0E0,0E0,0E0,0E0,0E0,0E0,0E0,0E0,0E0,0E0,0E0,0E0,0E0,0E0,0E0,0E0,0E0,0E0,0E0,0E0,0E0,0E0,0E0,0E0,0E0,0E0,0E0,0E0,0E0,0E0,0E0,0E0,0E0,0E0,0E0,0E0,0E0,0E0,0E0,0E0,0E0,0E0,0E0,0E0,0E0,0E0,0E0,0E0,0E0,0E0,0E0,0E0,0E0,0E0,0E0,0E0,0E0],"parents":[2147483647,0,0,1,1,2,2,3,3,4,4,5,5,6,6,7,7,8,8,9,9,10,10,11,11,12,12,13,13,14,14,15,15,16,16,17,17,18,18,19,19,20,20,21,21,22,22,23,23,24,24,25,25,26,26,27,27,28,28,29,29,30,30,31,31,32,32,33,33,34,34,35,35,36,36,37,37,38,38,39,39,40,40,41,41,42,42,43,43,44,44,45,45,46,46,47,47,48,48,49,49,50,50,51,51,52,52,53,53,54,54,55,55,56,56,57,57,58,58,59,59,60,60,61,61,62,62],"right_children":[2,4,6,8,10,12,14,16,18,20,22,24,26,28,30,32,34,36,38,40,42,44,46,48,50,52,54,56,58,60,62,64,66,68,70,72,74,76,78,80,82,84,86,88,90,92,94,96,98,100,102,104,106,108,110,112,114,116,118,120,122,124,126,-1,-1,-1,-1,-1,-1,-1,-1,-1,-1,-1,-1,-1,-1,-1,-1,-1,-1,-1,-1,-1,-1,-1,-1,-1,-1,-1,-1,-1,-1,-1,-1,-1,-1,-1,-1,-1,-1,-1,-1,-1,-1,-1,-1,-1,-1,-1,-1,-1,-1,-1,-1,-1,-1,-1,-1,-1,-1,-1,-1,-1,-1,-1,-1],"split_conditions":[4.9E0,2E2,6.6E0,3.2E0,1.27E1,1E0,9E0,8E-1,5E-1,6.6E0,1.0133E3,1.928E2,3.3E0,3E-1,3.651E2,1.6E1,3.58E2,-1E0,1.3E0,1.0163E3,2E-1,8.54E1,1.038E3,7.3E0,1.0095E3,5E-1,2.25E1,4.9E0,5.107E2,3E-1,8.6E1,1.0233E3,1E-1,1.81E1,1.0273E3,4.4E0,1.0114E3,1.0184E3,1.0116E3,3.7E0,2E-1,9.6E0,3E-1,5.385E2,1.05E1,1.49E1,1.621E2,9E-1,2E-1,8.84E1,3.8E0,1.0267E3,9.9E1,3E-1,1.0189E3,6E1,8.35E1,9.5E1,1.0167E3,7.04E1,9.04E1,6.8E0,5.695E2,5.906927E0,1.321556E1,2.708191E1,1.1869426E1,1.5902644E1,3.0260397E1,8.043689E0,-8.644548E0,2.3506134E1,-3.4639797E-1,-2.2217844E0,3.7042916E0,3.329624E1,4.4862623E0,2.5964613E0,1.0174425E1,-2.4992325E0,-4.3721075E0,-3.0067015E0,-2.2447598E-1,-5.465818E0,-9.03174E0,-3.8732488E0,-6.0304856E0,-3.499548E0,8.191829E-1,-1.7418724E0,-4.7883162E0,3.4173105E-2,2.6571164E0,1.3572568E1,-2.5053859E0,7.042262E-1,-4.3091693E0,-9.835401E0,-6.632802E0,-2.4338193E0,-5.257631E0,1.6756535E0,-1.5643796E0,3.5964093E0,1.5550611E1,1.2345467E1,6.782646E1,-2.5612772E0,2.5428503E0,6.9883704E0,8.095858E1,-5.6386847E0,3.8685364E-1,-3.7219434E0,-9.5883465E0,2.1798049E-1,-2.6864412E0,-5.427759E0,-1.1539592E1,-1.9871016E1,-9.188598E0,-5.4001737E0,-1.033307E1,-2.9876211E1,-1.5818044E1,-1.004965E1,-5.0836797E0],"split_indices":[7,2,7,7,4,2,7,4,4,6,3,4,6,4,4,6,4,6,6,3,4,5,3,6,3,4,6,6,4,4,2,3,4,6,3,7,3,3,3,7,4,6,4,4,6,6,4,6,4,5,6,3,2,4,3,2,5,2,3,5,5,6,4,0,0,0,0,0,0,0,0,0,0,0,0,0,0,0,0,0,0,0,0,0,0,0,0,0,0,0,0,0,0,0,0,0,0,0,0,0,0,0,0,0,0,0,0,0,0,0,0,0,0,0,0,0,0,0,0,0,0,0,0,0,0,0,0],"split_type":[0,0,0,0,0,0,0,0,0,0,0,0,0,0,0,0,0,0,0,0,0,0,0,0,0,0,0,0,0,0,0,0,0,0,0,0,0,0,0,0,0,0,0,0,0,0,0,0,0,0,0,0,0,0,0,0,0,0,0,0,0,0,0,0,0,0,0,0,0,0,0,0,0,0,0,0,0,0,0,0,0,0,0,0,0,0,0,0,0,0,0,0,0,0,0,0,0,0,0,0,0,0,0,0,0,0,0,0,0,0,0,0,0,0,0,0,0,0,0,0,0,0,0,0,0,0,0],"sum_hessian":[1.24632E5,3.9785E4,8.4847E4,2.5947E4,1.3838E4,1.5495E4,6.9352E4,1.2257E4,1.369E4,3.11E3,1.0728E4,5.966E3,9.529E3,6.6511E4,2.841E3,6.669E3,5.588E3,5.839E3,7.851E3,1.323E3,1.787E3,3.973E3,6.755E3,1.71E3,4.256E3,1.404E3,8.125E3,2.924E3,6.3587E4,2.571E3,2.7E2,6.169E3,5E2,4.607E3,9.81E2,2.1E2,5.629E3,3.37E2,7.514E3,6.72E2,6.51E2,6.73E2,1.114E3,1.195E3,2.778E3,6.596E3,1.59E2,8.76E2,8.34E2,1.365E3,2.891E3,8.65E2,5.39E2,7.988E3,1.37E2,1.054E3,1.87E3,6.2949E4,6.38E2,9.63E2,1.608E3,2.06E2,6.4E1,4.385E3,1.784E3,2.64E2,2.36E2,4.17E3,4.37E2,8.33E2,1.48E2,1.55E2,5.5E1,2.228E3,3.401E3,2.33E2,1.04E2,2.427E3,5.087E3,3.75E2,2.97E2,1.84E2,4.67E2,2.25E2,4.48E2,7.06E2,4.08E2,3.32E2,8.63E2,1.553E3,1.225E3,4.802E3,1.794E3,1.44E2,1.5E1,6.1E1,8.15E2,2.16E2,6.18E2,7.02E2,6.63E2,5.57E2,2.334E3,7.53E2,1.12E2,5.32E2,7E0,2.774E3,5.214E3,1.1E2,2.7E1,4.91E2,5.63E2,3.93E2,1.477E3,2.969E3,5.998E4,3.64E2,2.74E2,8.7E1,8.76E2,1.336E3,2.72E2,2.3E1,1.83E2,5.2E1,1.2E1],"tree_param":{"num_deleted":"0","num_feature":"8","num_nodes":"127","size_leaf_vector":"1"}},{"base_weights":[-5.4444146E-1,-2.9254597E1,1.9355011E2,-6.129316E1,-2.3694992E1,3.6528552E2,6.603988E1,-7.060034E1,-5.3563404E1,-1.033187E1,-4.8909878E1,2.3364238E2,5.4117914E2,9.189117E1,-1.0863301E1,-7.314417E1,-6.3441326E1,-4.69445E1,-5.6150436E1,-2.4103994E1,-1.0783968E0,-5.6365715E1,1.3537768E1,1.8019893E2,4.1692365E2,7.609463E2,3.2253802E2,2.133022E1,1.279623E2,4.714779E1,-6.3302128E1,-7.212786E1,-8.330108E0,-5.866321E0,-6.4999857E0,-4.8581474E1,-4.0529494E0,-5.7984222E1,-4.631018E1,2.9922644E1,-2.8737976E1,5.1549934E1,-1.0298185E1,-4.927487E1,-9.596271E1,-4.9104586E0,5.977678E1,1.0969301E2,2.4094841E2,4.603221E2,-7.8908E1,5.9137427E2,1.1206106E3,2.3813675E1,4.1094995E2,-4.162358E1,6.0787453E1,1.7032877E2,8.861527E1,6.351879E1,-1.19518936E2,-3.9462215E1,-1.3627965E2,-8.164471E0,-7.1066065E0,-5.229669E0,-4.7349544E0,-5.5462904E0,-6.475457E0,-4.7854877E0,-4.463709E0,1.0543914E-1,5.891021E0,-2.2368345E0,-5.8905215E0,1.8732808E0,9.075204E0,4.6148428E-1,-2.4704256E0,-6.8072267E0,-9.347332E-1,-1.1175691E1,-6.4740295E0,-5.6249995E0,5.84689E-1,-4.8167553E0,6.7531495E0,5.1335697E0,1.6546282E1,2.9536963E1,1.4218205E1,3.1193823E1,6.01876E1,-5.7812477E1,6.260738E0,7.087864E1,3.2342953E1,3.8852207E1,1.32413E2,9.86404E0,-1.2738859E1,2.6851706E1,7.3905014E1,-2.1664798E0,-1.1058163E1,1.5401441E1,3.7690773E0,1.3137797E1,2.2403389E1,1.7447706E0,1.3761925E1,1.1387401E1,-1.5846876E0,7.243497E0,-2.3035666E1,2.3303472E-1,-8.888596E0,-1.4335929E1,1.4004661E1],"categories":[],"categories_nodes":[],"categories_segments":[],"categories_sizes":[],"default_left":[0,0,0,0,0,0,1,0,0,0,0,0,0,0,0,0,0,0,0,0,0,0,0,1,1,0,0,0,0,0,0,0,0,0,0,0,0,0,0,0,0,0,0,0,0,0,0,0,0,0,0,0,0,0,0,0,0,0,0,0,0,1,0,0,0,0,0,0,0,0,0,0,0,0,0,0,0,0,0,0,0,0,0,0,0,0,0,0,0,0,0,0,0,0,0,0,0,0,0,0,0,0,0,0,0,0,0,0,0,0,0,0,0,0,0,0,0,0,0],"id":13,"left_children":[1,3,5,7,9,11,13,15,17,19,21,23,25,27,29,31,33,35,37,39,41,43,45,47,49,51,53,55,57,59,61,63,-1,-1,-1,65,-1,67,69,71,73,75,77,79,81,83,85,87,89,91,93,95,97,99,101,103,105,107,109,111,113,115,117,-1,-1,-1,-1,-1,-1,-1,-1,-1,-1,-1,-1,-1,-1,-1,-1,-1,-1,-1,-1,-1,-1,-1,-1,-1,-1,-1,-1,-1,-1,-1,-1,-1,-1,-1,-1,-1,-1,-1,-1,-1,-1,-1,-1,-1,-1,-1,-1,-1,-1,-1,-1,-1,-1,-1,-1],"loss_changes":[6.9512294E8,1.935468E7,3.519646E8,1.152184E6,3.120136E7,1.5846342E8,1.8342716E7,1.28068E5,1.4774E5,7.7134065E6,1.4935328E7,3.831219E7,1.405895E8,1.757198E7,7.0665855E6,4.9424E4,1.04695E4,2.4011E4,1.11162E5,6.090578E6,1.7567026E7,8.040912E6,2.9193545E6,1.2977368E7,1.9058512E7,8.844224E7,3.8840496E7,5.807598E6,7.6014E6,3.017129E6,2.117152E6,4.3602E4,0E0,0E0,0E0,6.522E3,0E0,8.7118E4,4.3825E2,1.6083065E6,4.30351E6,6.941542E6,6.618633E6,1.8241084E7,2.138388E6,1.3517515E6,8.20241E5,4.570694E6,8.719224E6,1.6888768E7,5.122768E6,3.1073408E7,6.906579E7,3.8253732E6,5.2842656E7,1.2376675E6,3.0883905E6,4.57056E6,8.266446E6,4.0182625E6,2.1229832E6,1.9025738E6,6.06963E5,0E0,0E0,0E0,0E0,0E0,0E0,0E0,0E0,0E0,0E0,0E0,0E0,0E0,0E0,0E0,0E0,0E0,0E0,0E0,0E0,0E0,0E0,0E0,0E0,0E0,0E0,0E0,0E0,0E0,0E0,0E0,0E0,0E0,0E0,0E0,0E0,0E0,0E0,0E0,0E0,0E0,0E0,0E0,0E0,0E0,0E0,0E0,0E0,0E0,0E0,0E0,0E0,0E0,0E0,0E0,0E0],"parents":[2147483647,0,0,1,1,2,2,3,3,4,4,5,5,6,6,7,7,8,8,9,9,10,10,11,11,12,12,13,13,14,14,15,15,16,16,17,17,18,18,19,19,20,20,21,21,22,22,23,23,24,24,25,25,26,26,27,27,28,28,29,29,30,30,31,31,35,35,37,37,38,38,39,39,40,40,41,41,42,42,43,43,44,44,45,45,46,46,47,47,48,48,49,49,50,50,51,51,52,52,53,53,54,54,55,55,56,56,57,57,58,58,59,59,60,60,61,61,62,62],"right_children":[2,4,6,8,10,12,14,16,18,20,22,24,26,28,30,32,34,36,38,40,42,44,46,48,50,52,54,56,58,60,62,64,-1,-1,-1,66,-1,68,70,72,74,76,78,80,82,84,86,88,90,92,94,96,98,100,102,104,106,108,110,112,114,116,118,-1,-1,-1,-1,-1,-1,-1,-1,-1,-1,-1,-1,-1,-1,-1,-1,-1,-1,-1,-1,-1,-1,-1,-1,-1,-1,-1,-1,-1,-1,-1,-1,-1,-1,-1,-1,-1,-1,-1,-1,-1,-1,-1,-1,-1,-1,-1,-1,-1,-1,-1,-1,-1,-1,-1,-1],"split_conditions":[1.6292808E9,1.0352808E9,1.6729632E9,9.790272E8,1.4231268E9,1.6543764E9,1.928E2,9.665892E8,9.946368E8,1.1922624E9,1.6072056E9,1.0241E3,1.6635852E9,1.0071E3,1.6948008E9,9.63522E8,9.697464E8,9.914796E8,1.0290024E9,1.0478592E9,1.2263616E9,1.5790104E9,1.6229952E9,2E-1,4.858E2,1.6606513E9,1E-1,1E-1,1.7042255E9,6.95E2,5.107E2,9.353412E8,-8.330108E0,-5.866321E0,-6.4999857E0,9.821376E8,-4.0529494E0,1.019664E9,1.0321704E9,1.0416096E9,1.1669436E9,1.210932E9,1.3234248E9,1.5293088E9,1.5977844E9,1.0017E3,1.0031E3,1.0116E3,1.843E2,1.64502E9,2E0,3.651E2,1.0105E3,8.6E1,1.6697196E9,4E-1,1.6854084E9,3E-1,1.716426E9,5.2E1,1.0224E3,5.1E1,6.6E1,-8.164471E0,-7.1066065E0,-5.229669E0,-4.7349544E0,-5.5462904E0,-6.475457E0,-4.7854877E0,-4.463709E0,1.0543914E-1,5.891021E0,-2.2368345E0,-5.8905215E0,1.8732808E0,9.075204E0,4.6148428E-1,-2.4704256E0,-6.8072267E0,-9.347332E-1,-1.1175691E1,-6.4740295E0,-5.6249995E0,5.84689E-1,-4.8167553E0,6.7531495E0,5.1335697E0,1.6546282E1,2.9536963E1,1.4218205E1,3.1193823E1,6.01876E1,-5.7812477E1,6.260738E0,7.087864E1,3.2342953E1,3.8852207E1,1.32413E2,9.86404E0,-1.2738859E1,2.6851706E1,7.3905014E1,-2.1664798E0,-1.1058163E1,1.5401441E1,3.7690773E0,1.3137797E1,2.2403389E1,1.7447706E0,1.3761925E1,1.1387401E1,-1.5846876E0,7.243497E0,-2.3035666E1,2.3303472E-1,-8.888596E0,-1.4335929E1,1.4004661E1],"split_indices":[0,0,0,0,0,0,4,0,0,0,0,3,0,3,0,0,0,0,0,0,0,0,0,4,4,0,4,4,0,4,4,0,0,0,0,0,0,0,0,0,0,0,0,0,0,3,3,3,4,0,2,4,3,2,0,1,0,4,0,2,3,2,2,0,0,0,0,0,0,0,0,0,0,0,0,0,0,0,0,0,0,0,0,0,0,0,0,0,0,0,0,0,0,0,0,0,0,0,0,0,0,0,0,0,0,0,0,0,0,0,0,0,0,0,0,0,0,0,0],"split_type":[0,0,0,0,0,0,0,0,0,0,0,0,0,0,0,0,0,0,0,0,0,0,0,0,0,0,0,0,0,0,0,0,0,0,0,0,0,0,0,0,0,0,0,0,0,0,0,0,0,0,0,0,0,0,0,0,0,0,0,0,0,0,0,0,0,0,0,0,0,0,0,0,0,0,0,0,0,0,0,0,0,0,0,0,0,0,0,0,0,0,0,0,0,0,0,0,0,0,0,0,0,0,0,0,0,0,0,0,0,0,0,0,0,0,0,0,0,0,0],"sum_hessian":[1.2474E5,1.08667E5,1.6073E4,1.6067E4,9.26E4,6.848E3,9.225E3,7.286E3,8.781E3,6.0525E4,3.2075E4,3.918E3,2.93E3,6.904E3,2.321E3,5.369E3,1.917E3,2.473E3,6.308E3,2.4323E4,3.6202E4,2.8654E4,3.421E3,3.035E3,8.83E2,1.46E3,1.47E3,2.336E3,4.568E3,1.102E3,1.219E3,4.888E3,4.81E2,4.81E2,1.436E3,1.965E3,5.08E2,5.313E3,9.95E2,1.921E3,2.2402E4,5.396E3,3.0806E4,2.4304E4,4.35E3,2.446E3,9.75E2,1.406E3,1.629E3,8.12E2,7.1E1,9.94E2,4.66E2,3.36E2,1.134E3,9E2,1.436E3,2.198E3,2.37E3,1.004E3,9.8E1,9.2E2,2.99E2,4.83E2,4.405E3,4.79E2,1.486E3,3.878E3,1.435E3,5.03E2,4.92E2,9.63E2,9.58E2,1.8498E4,3.904E3,2.938E3,2.458E3,1.5137E4,1.5669E4,1.6524E4,7.78E3,2.887E3,1.463E3,4.23E2,2.023E3,6.5E1,9.1E2,6.88E2,7.18E2,1.049E3,5.8E2,3.98E2,4.14E2,1.5E1,5.6E1,6.9E2,3.04E2,1.02E2,3.64E2,2.25E2,1.11E2,7.92E2,3.42E2,6.99E2,2.01E2,2.84E2,1.152E3,1.276E3,9.22E2,9.67E2,1.403E3,6.14E2,3.9E2,3.6E1,6.2E1,4.99E2,4.21E2,2.92E2,7E0],"tree_param":{"num_deleted":"0","num_feature":"8","num_nodes":"119","size_leaf_vector":"1"}},{"base_weights":[-2.0206778E-1,-2.6239712E1,1.7639233E2,-5.519276E1,-2.1139635E1,3.295015E2,5.0418644E1,-6.3164665E1,-4.8524845E1,-9.179626E0,-4.397644E1,4.254865E2,8.933305E1,1.080651E2,1.9691344E0,-6.506956E1,-5.772802E1,-4.244892E1,-5.0823067E1,-3.0616983E1,-3.8019657E0,-5.1032883E1,1.4457236E1,3.6640866E2,7.6855865E2,1.5185577E2,-3.9560215E0,9.65389E1,2.4310909E2,5.745973E1,-3.2356E1,-6.403234E1,-7.559163E0,-5.5470934E0,-5.9879704E0,-4.696967E1,-3.9482803E1,-5.1849735E1,-4.5091347E1,2.6141575E1,-4.126939E1,-2.9246803E1,2.012325E0,-7.804374E1,-4.0619648E1,2.6192001E1,-5.8048164E1,4.8185498E2,2.6588013E2,5.296657E2,1.4018938E3,2.6980386E2,8.524376E1,2.9849707E1,-1.5616754E2,1.3203581E2,5.1968468E1,4.9476675E2,1.524194E2,1.70648E2,4.06339E1,2.4832037E1,-7.5253265E1,-7.3062434E0,-6.2988753E0,-4.873646E0,-4.5020247E0,-3.5072243E0,-4.1619315E0,-4.849227E0,-5.5914726E0,-4.6675534E0,-4.328838E0,-1.3659766E0,4.0032754E0,-2.7017744E0,-4.847404E0,3.4205647E0,-3.5812893E0,-1.3658237E0,8.960449E-1,-6.0530915E0,-9.558567E0,-2.7540915E0,-8.221942E0,9.532577E-1,6.5103507E0,-5.0920978E0,-2.741709E1,2.5231453E1,5.3940125E1,6.3401367E1,2.4655891E1,7.99508E0,7.278951E1,1.1534995E2,1.5831075E2,8.168342E1,2.0331953E1,3.259073E1,2.3800607E0,1.8947853E-1,2.1076788E1,-5.450626E0,-3.7996044E1,-5.409885E0,1.3851691E1,2.4334273E0,1.0664103E1,6.600598E1,2.4922033E1,-2.7588095E1,1.6110537E1,2.530728E1,1.0149336E1,1.04197E1,-2.701721E-1,-5.6712403E0,6.093221E0,-2.2693264E0,-1.051547E1],"categories":[],"categories_nodes":[],"categories_segments":[],"categories_sizes":[],"default_left":[0,0,0,0,0,0,1,0,0,0,0,0,0,0,0,0,0,0,0,0,0,0,0,0,0,0,0,0,0,0,0,0,0,0,0,0,0,0,0,0,0,0,0,0,0,0,0,0,0,0,0,0,0,0,0,0,0,0,0,0,0,0,0,0,0,0,0,0,0,0,0,0,0,0,0,0,0,0,0,0,0,0,0,0,0,0,0,0,0,0,0,0,0,0,0,0,0,0,0,0,0,0,0,0,0,0,0,0,0,0,0,0,0,0,0,0,0,0,0,0,0],"id":14,"left_children":[1,3,5,7,9,11,13,15,17,19,21,23,25,27,29,31,33,35,37,39,41,43,45,47,49,51,53,55,57,59,61,63,-1,-1,-1,65,67,69,71,73,75,77,79,81,83,85,87,89,91,93,95,97,99,101,103,105,107,109,111,113,115,117,119,-1,-1,-1,-1,-1,-1,-1,-1,-1,-1,-1,-1,-1,-1,-1,-1,-1,-1,-1,-1,-1,-1,-1,-1,-1,-1,-1,-1,-1,-1,-1,-1,-1,-1,-1,-1,-1,-1,-1,-1,-1,-1,-1,-1,-1,-1,-1,-1,-1,-1,-1,-1,-1,-1,-1,-1,-1,-1],"loss_changes":[5.7325466E8,1.6042696E7,3.0897277E8,8.61888E5,2.5231468E7,1.666551E8,2.4549756E7,7.2962E4,1.21632E5,6.9894825E6,1.3093168E7,1.0442266E8,1.2050929E7,6.224492E6,9.100716E6,5.4944E4,6.0565E3,3.08505E4,3.5481E4,7.352595E6,7.1711845E6,7.965496E6,2.913074E6,5.1041216E7,1.1394234E8,9.695818E6,4.275527E6,5.846956E6,7.113754E6,3.4706575E6,7.243747E6,4.2452E4,0E0,0E0,0E0,1.11575E3,1.2477E4,7.159E4,7.90125E2,1.0631966E6,1.049908E6,3.7576025E6,4.2962405E6,2.415636E6,1.1124016E7,1.9091042E6,7.207849E5,2.6955968E7,1.6622752E7,4.9150784E7,7.491488E6,1.6054472E7,1.1703647E7,3.438737E6,3.4147022E6,2.491384E6,2.478191E6,3.204232E6,9.112515E5,1.3195285E6,4.3827645E6,3.7302665E6,2.648935E6,0E0,0E0,0E0,0E0,0E0,0E0,0E0,0E0,0E0,0E0,0E0,0E0,0E0,0E0,0E0,0E0,0E0,0E0,0E0,0E0,0E0,0E0,0E0,0E0,0E0,0E0,0E0,0E0,0E0,0E0,0E0,0E0,0E0,0E0,0E0,0E0,0E0,0E0,0E0,0E0,0E0,0E0,0E0,0E0,0E0,0E0,0E0,0E0,0E0,0E0,0E0,0E0,0E0,0E0,0E0,0E0,0E0,0E0],"parents":[2147483647,0,0,1,1,2,2,3,3,4,4,5,5,6,6,7,7,8,8,9,9,10,10,11,11,12,12,13,13,14,14,15,15,16,16,17,17,18,18,19,19,20,20,21,21,22,22,23,23,24,24,25,25,26,26,27,27,28,28,29,29,30,30,31,31,35,35,36,36,37,37,38,38,39,39,40,40,41,41,42,42,43,43,44,44,45,45,46,46,47,47,48,48,49,49,50,50,51,51,52,52,53,53,54,54,55,55,56,56,57,57,58,58,59,59,60,60,61,61,62,62],"right_children":[2,4,6,8,10,12,14,16,18,20,22,24,26,28,30,32,34,36,38,40,42,44,46,48,50,52,54,56,58,60,62,64,-1,-1,-1,66,68,70,72,74,76,78,80,82,84,86,88,90,92,94,96,98,100,102,104,106,108,110,112,114,116,118,120,-1,-1,-1,-1,-1,-1,-1,-1,-1,-1,-1,-1,-1,-1,-1,-1,-1,-1,-1,-1,-1,-1,-1,-1,-1,-1,-1,-1,-1,-1,-1,-1,-1,-1,-1,-1,-1,-1,-1,-1,-1,-1,-1,-1,-1,-1,-1,-1,-1,-1,-1,-1,-1,-1,-1,-1,-1,-1],"split_conditions":[1.6292808E9,1.0352808E9,1.6760448E9,9.790272E8,1.4262804E9,5.7E0,4E0,9.665892E8,9.946368E8,1.1136852E9,1.6072056E9,1.6E1,7.4E0,1.7290008E9,7.7E0,9.63522E8,9.727704E8,9.851112E8,1.0290024E9,1.0478592E9,1.0126E3,1.4763456E9,6.5E0,3.4E0,1.6606513E9,8.07E1,1.0156E3,1.7072748E9,2E0,1E0,5.3E0,9.353412E8,-7.559163E0,-5.5470934E0,-5.9879704E0,9.821376E8,9.883332E8,1.0132632E9,1.0321704E9,1.03851E9,1.06983E9,1.3108608E9,1.1922624E9,1.4514048E9,1.5758568E9,1.6229952E9,1.07E1,1.638756E9,4E-1,1.6543764E9,1.82E1,1.0049E3,3.3E0,1.39E1,1.6575156E9,9.952E2,1.7226108E9,9.63E1,3E0,1.7042255E9,1.7009784E9,1.0086E3,1.18E1,-7.3062434E0,-6.2988753E0,-4.873646E0,-4.5020247E0,-3.5072243E0,-4.1619315E0,-4.849227E0,-5.5914726E0,-4.6675534E0,-4.328838E0,-1.3659766E0,4.0032754E0,-2.7017744E0,-4.847404E0,3.4205647E0,-3.5812893E0,-1.3658237E0,8.960449E-1,-6.0530915E0,-9.558567E0,-2.7540915E0,-8.221942E0,9.532577E-1,6.5103507E0,-5.0920978E0,-2.741709E1,2.5231453E1,5.3940125E1,6.3401367E1,2.4655891E1,7.99508E0,7.278951E1,1.1534995E2,1.5831075E2,8.168342E1,2.0331953E1,3.259073E1,2.3800607E0,1.8947853E-1,2.1076788E1,-5.450626E0,-3.7996044E1,-5.409885E0,1.3851691E1,2.4334273E0,1.0664103E1,6.600598E1,2.4922033E1,-2.7588095E1,